/*!
 * The following copyright notice may not be removed under any circumstances.
 * 
 * Copyright:
 * Typeface: Copyright ©1995 International Typeface Corporation. Data: Copyright ©
 * 1995 Microsoft Corportation. All rights reserved.
 * 
 * Trademark:
 * ITC Eras is a registered trademark of International Typeface Corporation.
 */
Cufon.registerFont({"w":1334,"face":{"font-family":"Eras Bold ITC","font-weight":400,"font-stretch":"normal","units-per-em":"2048","panose-1":"2 11 9 7 3 5 4 2 2 4","ascent":"1638","descent":"-410","x-height":"26","bbox":"-346 -1859 2650 512","underline-thickness":"175","underline-position":"-67","unicode-range":"U+0020-U+F002"},"glyphs":{" ":{"w":512},"!":{"d":"176,-510v10,-235,18,-520,24,-855v85,1,155,2,211,2v45,0,111,-1,200,-2v-13,123,-36,408,-67,855v-68,-1,-123,-2,-164,-2v-61,0,-129,1,-204,2xm129,0v5,-62,9,-109,11,-142v2,-33,5,-102,10,-206v84,1,156,2,215,2v50,0,117,-1,200,-2v-9,150,-15,266,-17,348v-101,-1,-169,-2,-203,-2v-50,0,-122,1,-216,2","w":727},"\"":{"d":"139,-966v4,-77,6,-153,7,-226r2,-173v55,1,99,2,130,2v23,0,64,-1,123,-2v-14,124,-26,257,-37,399v-45,-2,-78,-3,-100,-3v-33,0,-75,1,-125,3xm485,-966v5,-85,6,-162,7,-233r3,-166v55,1,98,2,129,2v24,0,65,-1,124,-2v-15,131,-28,264,-37,399v-45,-2,-79,-3,-101,-3v-33,0,-75,1,-125,3","w":813},"#":{"d":"278,-383r-233,2v17,-75,32,-155,46,-242r233,2r29,-155r-233,1r46,-241r232,1r64,-350v42,1,84,2,127,2v47,0,90,-1,127,-2r-68,351r182,0r65,-351v41,1,84,2,127,2v48,0,90,-1,126,-2r-67,350r231,-1v-19,85,-34,165,-46,241r-231,-1r-29,155r232,-2v-17,73,-32,153,-47,242r-231,-2r-69,383v-43,-1,-85,-2,-128,-2v-48,0,-90,1,-127,2r75,-384r-183,0v-5,24,-28,152,-70,384v-42,-1,-85,-2,-128,-2v-48,0,-90,1,-126,2xm602,-777r-29,157r183,0r30,-157r-184,0"},"$":{"d":"857,-1058v-60,-2,-118,30,-118,84v0,58,37,85,75,122v133,132,215,192,278,334v47,105,25,240,-28,314v-62,86,-124,129,-236,174r-1,249v-73,-1,-130,-2,-173,-2v-43,0,-106,1,-189,2v4,-53,5,-143,5,-218v-118,-16,-164,-27,-269,-61v-5,-167,-10,-282,-16,-345v102,46,204,76,321,84v95,6,164,-87,100,-165v-27,-33,-53,-57,-83,-86v-106,-104,-176,-178,-213,-219v-84,-91,-118,-291,-33,-407v67,-91,136,-135,272,-167v5,-77,-1,-138,1,-217v73,1,133,2,181,2v53,0,113,-1,180,-2v-3,74,-5,117,-5,130r0,86v66,9,131,23,195,41v5,108,11,220,19,336v-83,-38,-169,-66,-263,-69"},"%":{"d":"380,-505v-237,-1,-346,-162,-346,-402v0,-170,70,-359,186,-421v62,-33,128,-53,201,-53v231,0,343,163,342,404v-2,267,-119,473,-383,472xm411,-1191v-108,0,-129,170,-129,291v0,70,9,122,28,156v48,84,133,59,170,-36v35,-92,52,-274,5,-358v-20,-35,-45,-53,-74,-53xm456,0r282,-521r440,-844v42,1,79,2,111,2v27,0,63,-1,108,-2r-218,404r-371,707r-125,254v-41,-1,-76,-2,-105,-2v-19,0,-59,1,-122,2xm1435,16v-239,-3,-345,-152,-345,-405v0,-171,72,-357,186,-419v60,-33,126,-51,199,-51v235,3,345,154,345,398v0,269,-110,481,-385,477xm1543,-276v38,-117,60,-378,-76,-392v-130,20,-136,236,-121,380v7,69,55,143,132,109v32,-14,51,-52,65,-97","w":1852},"&":{"d":"1069,-552v16,-50,16,-105,19,-173v68,2,127,3,177,3v51,0,107,-1,169,-3v0,200,-50,333,-124,461r224,264v-95,-1,-171,-2,-228,-2v-77,0,-149,1,-218,2r-79,-99v-107,74,-222,123,-396,125v-303,3,-536,-146,-536,-434v0,-91,26,-172,79,-244v53,-72,145,-142,278,-207v-63,-99,-96,-225,-32,-341v69,-124,205,-191,402,-191v107,0,218,13,335,38r7,310v-75,-30,-121,-47,-203,-50v-100,-3,-189,50,-157,149v52,158,187,272,283,392xm467,-415v-7,144,190,192,303,123v14,-9,33,-22,54,-40r-220,-264v-70,44,-132,79,-137,181","w":1571},"'":{"d":"139,-966v4,-77,6,-153,7,-226r2,-173v55,1,99,2,130,2v23,0,64,-1,123,-2v-14,124,-26,257,-37,399v-45,-2,-78,-3,-100,-3v-33,0,-75,1,-125,3","w":467},"(":{"d":"617,-1205v-130,452,-191,1163,-55,1673v-66,-1,-117,-2,-153,-2v-39,0,-94,1,-165,2v-60,-223,-113,-477,-111,-750v3,-419,86,-722,209,-1083v60,1,113,2,158,2v47,0,100,-1,160,-2","w":762},")":{"d":"55,468v185,-513,206,-1236,95,-1833v66,1,119,2,160,2v43,0,95,-1,158,-2v66,298,102,504,102,811v0,391,-82,705,-197,1022v-67,-1,-122,-2,-164,-2v-43,0,-95,1,-154,2","w":752},"*":{"d":"146,-1071v13,-23,85,-165,94,-193r207,101r-7,-228v43,1,79,2,110,2v35,0,71,-1,108,-2r-34,230r219,-97v21,66,44,130,67,193r-221,68r151,166r-173,138r-149,-199r-176,199v-43,-44,-94,-91,-153,-141r169,-166","w":1019},"+":{"d":"94,-579v7,-71,11,-154,13,-249r448,3r19,-455v33,1,77,2,130,2v53,0,96,-1,130,-2r-26,455r450,-3v-6,71,-10,154,-13,249r-449,-3v-2,39,-8,191,-19,456v-70,-4,-190,-4,-260,0r25,-456"},",":{"d":"-28,256r175,-505v93,1,160,2,203,2v34,0,98,-1,193,-2r-301,504v-59,-1,-103,-2,-132,-2v-37,0,-83,1,-138,3","w":604},"-":{"d":"-3,-393v8,-97,13,-189,15,-277v95,3,184,4,268,4v85,0,175,-1,269,-4v-8,86,-13,178,-15,277v-95,-2,-184,-3,-269,-3v-85,0,-174,1,-268,3","w":547},".":{"d":"98,0v5,-89,10,-210,14,-362r206,3v22,0,80,-1,174,-3v-5,73,-11,193,-18,362r-174,-2v-13,0,-80,1,-202,2","w":604},"\/":{"d":"-273,468r207,-379r573,-1068r204,-386v55,1,93,2,116,2v28,0,67,-1,116,-2r-830,1569r-134,264v-59,-1,-98,-2,-118,-2v-13,0,-58,1,-134,2","w":908},"0":{"d":"635,26v-375,0,-563,-248,-557,-632v7,-442,177,-785,626,-785v242,0,404,96,492,279v133,277,58,751,-92,936v-95,117,-268,202,-469,202xm824,-1012v-44,-83,-138,-112,-211,-55v-113,88,-137,278,-137,478v0,128,20,224,80,283v40,38,101,54,154,25v125,-68,161,-281,161,-478v0,-113,-17,-197,-47,-253"},"1":{"d":"501,0v9,-103,20,-270,33,-501v13,-231,21,-396,23,-495r-72,46v-23,15,-74,50,-152,106v4,-57,8,-124,11,-200v3,-76,5,-132,5,-168v81,-53,162,-92,238,-153v59,1,128,2,205,2v73,0,148,-1,225,-2r-20,223r-43,740r-10,272r0,130v-57,-1,-126,-2,-207,-2v-95,0,-173,1,-236,2"},"2":{"d":"1176,-296r-23,296v-166,-1,-340,-2,-521,-2v-219,0,-404,1,-555,2r13,-283v216,-179,424,-369,587,-576v35,-44,53,-63,53,-118v0,-145,-217,-127,-360,-108v-52,7,-123,23,-212,46r26,-143v6,-29,15,-84,26,-165v368,-60,821,-103,980,145v107,166,-23,359,-108,465v-132,164,-269,298,-442,455r264,-1v77,-1,131,-3,161,-4v30,-1,67,-4,111,-9"},"3":{"d":"1210,-400v0,472,-639,473,-1076,373v-9,-135,-17,-243,-26,-323v149,50,283,75,403,75v128,0,248,-51,248,-164v0,-49,-23,-83,-69,-107v-74,-39,-277,-40,-391,-23v9,-104,17,-206,23,-307v158,21,422,41,422,-116v0,-138,-209,-118,-354,-107v-47,4,-112,15,-193,32r62,-298v145,-17,277,-26,398,-26v293,2,564,53,564,338v0,206,-134,289,-291,350v168,31,280,113,280,303"},"4":{"d":"91,-682v152,-185,351,-458,490,-683v103,1,195,2,277,2v77,0,157,-1,238,-2v-11,141,-20,280,-26,415v-6,135,-10,237,-11,306r172,2r39,-3r-4,300v-43,-3,-145,-5,-218,-3v-5,65,-8,181,-8,348v-66,-1,-134,-2,-205,-2v-66,0,-139,1,-218,2r26,-348r-567,7xm700,-629r21,-451r-108,164r-206,287r293,0"},"5":{"d":"1220,-456v0,473,-606,546,-1061,436r-13,-190v-2,-27,-7,-70,-14,-130v138,39,252,59,343,59v135,0,262,-54,262,-180v0,-49,-21,-88,-67,-111v-117,-60,-340,-38,-504,-14r51,-646v2,-32,4,-76,6,-133v167,1,328,2,483,2v196,0,359,-1,490,-2v-6,69,-10,124,-11,165r-5,136r-446,-7v-21,0,-55,1,-102,2r-20,229v332,-30,608,78,608,384"},"6":{"d":"830,-442v1,-116,-112,-172,-229,-150r167,-279v293,-50,500,108,491,386v-11,348,-246,511,-607,511v-328,0,-569,-146,-569,-459v0,-279,120,-438,245,-645v64,-106,132,-200,200,-287r512,0v-215,246,-302,337,-440,596v-52,98,-102,186,-102,320v0,104,59,183,167,183v104,0,163,-74,165,-176"},"7":{"d":"162,0r330,-615r237,-455v-59,-1,-104,-1,-135,-1v-139,0,-291,4,-454,13v7,-89,11,-191,14,-307r1075,0r-15,316r-239,459r-152,301r-136,289r-525,0"},"8":{"d":"85,-350v0,-204,117,-301,286,-350v-126,-58,-212,-130,-212,-299v0,-293,261,-390,564,-392v212,-1,393,70,464,211v21,43,32,95,32,155v0,186,-93,255,-231,322v154,38,260,109,260,288v0,385,-432,498,-824,419v-183,-37,-339,-138,-339,-354xm853,-983v0,-84,-66,-132,-154,-132v-97,0,-171,62,-171,152v0,85,66,132,154,133v93,1,171,-62,171,-153xm851,-422v0,-96,-74,-144,-176,-144v-111,0,-191,61,-191,163v0,97,79,151,180,151v109,0,187,-62,187,-170"},"9":{"d":"722,-1391v362,-4,605,212,529,584v-67,325,-270,566,-437,807r-521,0r165,-205v140,-191,313,-386,376,-635v34,-132,-18,-257,-150,-257v-104,0,-187,77,-187,184v0,124,115,178,239,143r-194,286v-23,3,-42,5,-58,5v-238,-10,-402,-149,-402,-398v0,-350,272,-510,640,-514"},":":{"d":"122,-659v6,-107,11,-227,15,-362r205,2v22,0,80,-1,174,-2v-5,65,-11,185,-18,362r-174,-3v-13,0,-80,1,-202,3xm98,0v5,-89,10,-210,14,-362r206,3v22,0,80,-1,174,-3v-5,73,-11,193,-18,362r-174,-2v-13,0,-80,1,-202,2","w":604},";":{"d":"122,-659v6,-107,11,-227,14,-362r205,2v23,0,81,-1,175,-2v-5,70,-11,191,-18,362r-174,-3v-13,0,-81,1,-202,3xm-28,256r175,-505v93,1,160,2,203,2v34,0,98,-1,193,-2r-301,504v-59,-1,-103,-2,-132,-2v-37,0,-83,1,-138,3","w":604},"<":{"d":"953,-1329r0,363r-503,274r502,276r1,360r-887,-485r0,-304","w":1019},"=":{"d":"120,-1020r575,4r576,-4v-7,71,-11,154,-14,249v-191,-2,-382,-3,-575,-3v-193,0,-385,1,-575,3v6,-71,10,-154,13,-249xm98,-635v191,2,383,3,575,3v193,0,385,-1,576,-3v-7,71,-11,154,-13,249v-191,-3,-382,-4,-575,-4v-193,0,-385,1,-576,4v6,-71,10,-154,13,-249"},">":{"d":"66,-56r0,-362r504,-275r-502,-276r-2,-360r887,485r0,304","w":1019},"?":{"d":"578,-946v58,-105,-75,-148,-198,-148v-94,0,-203,20,-326,60r43,-222v5,-26,10,-61,16,-103v352,-51,756,-70,907,157v63,95,35,237,-16,316v-79,123,-211,209,-291,320v-29,40,-34,71,-44,136v-67,-2,-128,-3,-182,-3v-53,0,-117,1,-193,2v3,-173,33,-247,117,-333v57,-59,127,-110,167,-182xm248,0r26,-336v85,1,154,2,208,2v58,0,126,-1,204,-2v-7,76,-11,141,-13,194v-2,53,-4,101,-7,142v-90,-1,-157,-2,-202,-2v-47,0,-119,1,-216,2","w":1069},"@":{"d":"728,-338v-139,5,-235,-109,-232,-255v3,-163,108,-331,238,-382v163,-64,367,-56,578,-18r-76,371v-9,44,-1,94,45,88v137,-17,236,-170,236,-332v0,-278,-244,-354,-524,-357v-324,-4,-552,137,-655,365v-37,81,-55,165,-55,252v2,319,221,465,545,464v182,-2,296,-26,420,-97v9,53,19,104,31,155v-125,73,-269,110,-462,110v-424,0,-717,-193,-717,-613v0,-516,363,-804,902,-804v386,0,697,154,697,526v0,249,-160,414,-347,489v-133,54,-346,64,-393,-62v-66,64,-118,96,-231,100xm751,-623v-4,86,82,126,149,80v85,-58,89,-146,115,-281v-156,-37,-257,65,-264,201","w":1785},"A":{"d":"-79,0r83,-144r517,-974r122,-247v117,1,203,2,257,2v94,0,181,-1,261,-2r146,417r297,802r58,146v-115,-1,-185,-2,-210,-2v-56,0,-138,1,-247,2v-29,-110,-72,-239,-127,-388r-504,0v-58,117,-118,247,-180,388v-124,-1,-200,-2,-228,-2v-51,0,-132,1,-245,2xm695,-679r311,0v-77,-235,-120,-365,-127,-389v-44,98,-81,178,-112,241","w":1667},"B":{"d":"1084,-701v172,25,277,128,277,317v0,216,-130,343,-319,368v-261,35,-642,11,-938,16v43,-424,55,-931,56,-1365v89,2,159,3,211,3r503,-9v197,-3,295,12,388,96v54,49,86,136,86,233v0,195,-102,300,-264,341xm935,-978v6,-161,-213,-116,-373,-123r-12,268r142,0v147,5,238,-19,243,-145xm948,-430v0,-109,-73,-132,-198,-132r-211,0r-12,288r192,0v146,2,229,-29,229,-156","w":1453},"C":{"d":"982,-1082v-279,0,-469,167,-475,439v-3,160,82,268,193,321v167,80,396,40,582,-11v-8,39,-18,95,-29,165v-11,70,-19,124,-23,163v-377,60,-724,36,-940,-143v-139,-115,-216,-265,-216,-497v0,-390,233,-620,539,-705v231,-64,409,-49,678,-3r15,319v-127,-30,-200,-48,-324,-48","w":1373},"D":{"d":"367,-1362v310,4,678,-51,889,73v167,98,267,289,267,544v0,366,-154,618,-434,704v-268,82,-642,25,-987,41v44,-435,59,-900,63,-1365v78,2,145,3,202,3xm1090,-732v0,-231,-106,-346,-352,-346v-48,0,-105,2,-170,6r-34,771v176,12,347,3,438,-90v72,-74,118,-203,118,-341","w":1584},"E":{"d":"99,0v44,-428,69,-928,70,-1365v157,1,348,2,571,2v206,0,388,-1,545,-2r-15,300v-129,-5,-237,-8,-324,-8v-96,0,-160,1,-194,1v-34,0,-87,1,-158,4r-12,229v79,2,170,3,275,3v37,0,137,-2,298,-7v-7,85,-13,187,-19,305v-115,-1,-204,-2,-266,-2v-92,0,-195,2,-309,7r-12,243r533,-8v31,-1,82,-3,154,-8v-8,99,-15,201,-20,306r-1117,0","w":1350},"F":{"d":"104,0v46,-401,60,-946,63,-1365v201,1,387,2,560,2v174,0,341,-1,502,-2v-11,153,-16,254,-16,301r-227,-5r-396,2r-9,233r307,3v47,0,118,-1,214,-3v-7,126,-11,225,-11,296v-107,-3,-187,-5,-239,-5v-88,0,-184,2,-288,5r-11,538r-215,-2v-17,0,-95,1,-234,2","w":1257},"G":{"d":"507,-616v-4,224,140,347,361,348v59,0,124,-9,195,-26r11,-217v-43,-2,-69,-3,-77,-3r-106,1r10,-181v1,-25,2,-59,2,-102v91,1,178,2,261,2v141,0,252,-1,332,-2v-9,91,-17,221,-26,388v-9,167,-15,294,-17,379v-420,81,-1020,102,-1235,-171v-82,-104,-144,-260,-144,-437v0,-306,169,-537,392,-653v253,-131,628,-120,974,-48v0,97,4,206,13,325v-134,-47,-261,-80,-429,-80v-313,0,-511,168,-517,477","w":1598},"H":{"d":"104,0r39,-546r18,-398r7,-325r-1,-96v105,1,183,2,235,2v41,0,111,-1,212,-2v-16,191,-26,360,-31,507r544,-1r14,-412v0,-18,-1,-49,-2,-94r237,2v25,0,95,-1,210,-2v-24,343,-39,598,-46,765v-7,167,-10,367,-10,600r-218,-2v-33,0,-111,1,-234,2v17,-159,28,-343,34,-554r-545,0r-17,554r-232,-2v-29,0,-101,1,-214,2","w":1676},"I":{"d":"104,0v39,-535,58,-947,58,-1236r-1,-129v117,1,195,2,234,2v18,0,90,-1,215,-2v-12,150,-22,292,-29,426v-9,187,-16,361,-20,523v-4,162,-6,301,-6,416r-205,-2v-40,0,-122,1,-246,2","w":700},"J":{"d":"-45,-365v121,44,186,71,312,73v126,2,207,-63,225,-171v33,-195,41,-664,39,-902v107,1,178,2,213,2v44,0,119,-1,226,-2r-30,442v-7,131,-13,270,-16,417v-6,218,-3,302,-101,395v-185,175,-528,159,-845,80v-6,-114,-14,-225,-23,-334","w":1057},"K":{"d":"99,0v40,-367,60,-874,71,-1279r0,-86v111,1,188,2,230,2v28,0,100,-1,216,-2r-47,747r-24,618r-217,-2v-31,0,-107,1,-229,2xm600,-720r224,-305r181,-254r56,-86v124,1,208,2,252,2v12,0,92,-1,239,-2r-422,533r-79,107r74,118r418,607r-246,-2v-53,0,-144,1,-271,2v-86,-162,-228,-402,-426,-720","w":1567},"L":{"d":"90,0v50,-453,73,-910,78,-1365v91,1,171,2,241,2v47,0,115,-1,204,-2r-24,362r-30,566r-4,139v115,2,189,3,224,3v175,0,308,-2,398,-7r-22,302v-175,-1,-342,-2,-501,-2v-215,0,-403,1,-564,2","w":1200},"M":{"d":"1372,0v9,-75,33,-777,32,-861v0,-27,-1,-65,-2,-114r-131,407r-188,568v-87,-1,-146,-2,-179,-2v-41,0,-105,1,-190,2r-123,-550r-81,-335v-3,-17,-9,-46,-16,-88r-25,277r-33,568r-3,128v-92,-1,-151,-2,-176,-2v-35,0,-95,1,-180,2r25,-202r62,-701r31,-462v123,1,219,2,289,2v58,0,147,-1,266,-2v20,175,89,361,124,529v14,63,35,170,64,323v29,-105,57,-194,80,-270v32,-104,129,-359,158,-445v10,-30,23,-76,40,-137v100,1,198,2,294,2v65,0,156,-1,272,-2v-13,225,-21,418,-25,579v-9,316,-13,533,-13,652v0,25,1,69,2,134v-88,-1,-150,-2,-185,-2v-51,0,-114,1,-189,2","w":1886},"N":{"d":"101,0r20,-210r39,-712r11,-287r0,-156v103,1,195,2,274,2v57,0,136,-1,239,-2r428,776r59,114v7,-112,15,-269,23,-471v8,-202,11,-342,11,-419v82,1,148,2,197,2v23,0,88,-1,196,-2r-24,298r-45,828r-6,239v-87,-1,-168,-2,-243,-2v-63,0,-149,1,-260,2r-77,-142r-168,-285r-153,-268v-31,-54,-62,-113,-95,-178r-21,474r-10,399v-83,-1,-146,-2,-189,-2v-37,0,-105,1,-206,2","w":1681},"O":{"d":"74,-655v0,-488,361,-730,852,-736v355,-4,622,151,733,398v76,169,69,419,-5,591v-118,273,-394,426,-776,428v-365,2,-652,-153,-756,-410v-33,-81,-48,-172,-48,-271xm1281,-702v0,-230,-142,-388,-373,-388v-247,0,-398,183,-401,429v-3,231,156,381,381,381v241,0,393,-182,393,-422","w":1774},"P":{"d":"868,-952v6,-157,-179,-135,-324,-123v-9,129,-15,272,-20,429v-9,287,-13,459,-13,516r0,130r-199,-2v-28,0,-97,1,-208,2r20,-256r26,-500r12,-468v0,-29,0,-76,-1,-141v88,2,159,3,212,3v255,0,595,-53,753,62v93,68,154,172,154,324v0,335,-280,514,-638,454v-9,-55,-50,-223,-66,-272v29,6,60,9,92,9v121,4,196,-62,200,-167","w":1307},"Q":{"d":"1759,-343v-13,53,-23,102,-31,149r-29,162v-396,48,-998,127,-1303,-57v-190,-114,-322,-283,-322,-572v0,-368,210,-572,494,-674v191,-68,462,-75,670,-11v192,59,333,184,416,349v104,207,43,485,-68,612v-24,28,-50,60,-83,93v125,-18,145,-23,256,-51xm1279,-702v0,-230,-141,-386,-370,-386v-247,0,-417,179,-417,422v0,238,158,383,386,383v244,0,401,-172,401,-419","w":1807},"R":{"d":"968,-943v0,-173,-229,-138,-408,-136v-9,137,-16,303,-23,500v-7,197,-11,390,-13,579v-111,-1,-184,-2,-217,-2v-39,0,-108,1,-209,2v50,-419,62,-909,65,-1365v83,2,151,4,202,3r419,-9v333,-6,597,53,597,367v0,237,-129,331,-318,401r99,235r166,368v-110,-1,-184,-2,-222,-2v-48,0,-127,1,-236,2r-87,-284r-174,-482v172,34,359,-13,359,-177","w":1435},"S":{"d":"1035,-374v0,281,-240,400,-538,400v-108,0,-244,-16,-409,-47v-9,-142,-19,-256,-30,-341v118,53,220,86,353,89v107,2,214,-29,185,-133v-9,-31,-32,-54,-59,-78r-280,-245v-78,-78,-139,-142,-139,-281v0,-273,229,-381,519,-381v113,0,235,13,368,39v2,46,4,88,7,126v3,38,9,106,19,202v-97,-40,-190,-64,-299,-66v-97,-2,-220,47,-173,140v65,130,236,197,342,311v67,73,134,135,134,265","w":1132},"T":{"d":"404,0v33,-324,53,-681,60,-1070r-426,11r11,-306r1279,0r-13,303v-143,-7,-260,-10,-353,-10r-70,0v-10,118,-18,227,-23,327v-7,143,-13,282,-17,417v-4,135,-6,245,-6,328v-109,-1,-180,-2,-212,-2v-29,0,-105,1,-230,2","w":1300},"U":{"d":"160,-1365v104,1,177,2,220,2v53,0,124,-1,213,-2r-43,650v-6,165,-19,269,46,359v67,94,309,92,377,0v29,-39,53,-82,61,-148v28,-226,50,-586,55,-861v101,1,180,2,238,2r203,-2r-50,743v-8,238,-7,325,-97,442v-233,301,-1165,288,-1258,-100v-52,-216,6,-442,17,-690","w":1592},"V":{"d":"463,0r-37,-122r-244,-703r-192,-540v91,1,171,2,242,2v43,0,111,-1,204,-2v15,59,27,104,36,135r215,690v15,49,33,114,54,193r46,-115r369,-812v8,-18,20,-48,37,-91v97,1,174,2,233,2v37,0,109,-1,218,-2r-231,444r-345,684r-112,237v-112,-1,-192,-2,-240,-2v-45,0,-129,1,-253,2","w":1543},"W":{"d":"369,0r-71,-366r-163,-747r-59,-252v84,1,152,2,204,2v59,0,127,-1,204,-2v18,109,32,188,43,239r84,403v17,87,37,192,58,317r33,-140r119,-462r82,-357v91,1,169,2,232,2v69,0,146,-1,231,-2r63,421r87,536r62,-224r172,-539r57,-194r399,0r-388,1162r-62,203v-100,-1,-187,-2,-262,-2v-79,0,-166,1,-261,2r-111,-614r-28,-230r-62,260r-161,584v-101,-1,-184,-2,-251,-2v-71,0,-154,1,-251,2","w":2225},"X":{"d":"-93,0r285,-372r259,-356r-118,-199r-278,-438v86,1,174,2,264,2v71,0,148,-1,229,-2v29,58,64,121,104,189v40,68,71,126,94,176v27,-46,63,-104,109,-172v46,-68,86,-132,121,-193v71,1,148,2,231,2v54,0,131,-1,230,-2r-483,665v108,184,255,417,440,700v-105,-1,-184,-2,-237,-2v-88,0,-175,1,-261,2v-26,-53,-63,-120,-110,-202v-47,-82,-87,-157,-122,-226v-64,112,-202,303,-285,428v-97,-1,-174,-2,-231,-2v-63,0,-143,1,-241,2","w":1403},"Y":{"d":"389,0v11,-83,39,-456,38,-549r-458,-816v101,1,184,2,249,2v63,0,138,-1,225,-2v51,132,170,351,220,486v77,-135,138,-241,185,-317v47,-76,80,-132,100,-169v85,1,166,2,244,2v41,0,116,-1,225,-2r-439,647v-98,164,-130,162,-133,233r-18,485v-94,-1,-167,-2,-218,-2v-53,0,-126,1,-220,2","w":1321},"Z":{"d":"41,0v8,-137,12,-239,12,-304r59,-58r517,-558r135,-155r-297,-2v-105,0,-217,4,-334,11v7,-92,12,-195,7,-299v189,1,390,2,603,2v220,0,410,-1,569,-2r-13,300r-85,84r-626,685r279,0r385,-11v-7,119,-12,221,-15,307r-1196,0","w":1365},"[":{"d":"635,244r-12,224v-71,-1,-161,-2,-268,-2v-107,0,-197,1,-268,2v24,-309,43,-612,57,-907v14,-295,25,-604,32,-926v71,1,161,2,270,2v109,0,199,-1,270,-2v-5,32,-12,186,-12,225v-76,-4,-131,-4,-207,0r-31,506r-23,497r-12,381v76,4,129,4,204,0","w":762},"\\":{"d":"1065,468r-129,-2v-20,0,-58,1,-114,2r-126,-299r-678,-1534v48,1,85,2,111,2v23,0,60,-1,112,-2r150,341r566,1259","w":888},"]":{"d":"82,-1141r11,-224v76,1,165,2,268,2v103,0,192,-1,269,-2r-38,547r-14,245r-24,564r-13,477v-107,-1,-197,-2,-270,-2v-74,0,-164,1,-270,2v4,-34,13,-186,12,-225v69,4,138,4,206,0v33,-470,55,-931,66,-1384v-76,-4,-127,-4,-203,0","w":762},"^":{"d":"334,-697r-319,0r293,-678r403,0r293,678r-318,0r-176,-431","w":1020},"_":{"d":"-2,103r1024,0r0,216r-1024,0r0,-216","w":1019},"`":{"d":"714,-1164v-69,-1,-119,-2,-149,-2v-43,0,-95,1,-158,2r-97,-125r-80,-97v83,1,151,2,202,2v67,0,133,-1,200,-2","w":1024},"a":{"d":"728,-722v24,-73,-42,-105,-121,-105v-115,0,-256,32,-425,97v13,-66,21,-111,24,-136r16,-118v192,-42,357,-63,495,-63v225,0,425,50,424,281v0,37,-5,121,-15,252v-10,131,-18,302,-23,514v-65,-1,-130,-2,-195,-2v-63,0,-129,1,-200,2v9,-73,20,-225,31,-454v-93,55,-254,49,-305,140v-45,82,47,140,149,118v16,-3,38,-8,66,-17v-19,51,-42,126,-69,225v-57,9,-112,14,-163,14v-227,0,-378,-102,-378,-300v0,-122,72,-201,150,-254v114,-79,339,-96,493,-150v22,-8,39,-24,46,-44","w":1240},"b":{"d":"787,26v-159,0,-247,-62,-321,-154r-4,128v-71,-1,-131,-2,-179,-2v-39,0,-106,1,-199,2v19,-210,35,-455,49,-734v14,-279,21,-490,21,-631v77,1,150,2,217,2v66,0,131,-1,194,-2v-15,104,-25,218,-32,343v101,-16,143,-24,237,-25v328,-3,510,172,510,493v0,325,-165,580,-493,580xm878,-531v2,-139,-79,-234,-219,-232v-44,0,-95,7,-154,22v-5,111,-8,178,-8,203v-6,163,44,270,184,270v138,0,195,-124,197,-263","w":1340},"c":{"d":"461,-501v0,183,128,256,311,226v72,-12,101,-19,168,-44r-50,307v-240,59,-523,52,-672,-76v-149,-128,-199,-417,-116,-644v76,-206,247,-320,527,-315v126,2,200,12,321,40r19,304v-95,-33,-180,-50,-253,-50v-161,1,-255,91,-255,252","w":1036},"d":{"d":"1287,-1365v-33,311,-73,1049,-73,1365v-71,-1,-131,-2,-178,-2v-53,0,-118,1,-194,2r6,-127v-84,88,-184,153,-349,153v-280,0,-439,-188,-439,-471v0,-285,152,-509,384,-571v135,-36,268,-38,427,-16v5,-79,9,-190,11,-333v82,1,149,2,201,2v67,0,135,-1,204,-2xm451,-473v-3,119,64,205,178,205v142,0,194,-126,213,-264v7,-55,12,-135,15,-240v-35,-8,-69,-12,-100,-12v-198,0,-301,131,-306,311","w":1351},"e":{"d":"455,-473v-20,223,202,267,415,223v56,-12,125,-27,208,-52v-9,40,-25,137,-50,290v-244,52,-560,64,-746,-37v-138,-75,-222,-223,-222,-430v0,-352,216,-569,583,-569v313,0,524,139,526,447v0,38,-4,80,-13,127xm793,-626v17,-138,-77,-222,-206,-180v-76,25,-112,88,-124,180r330,0","w":1212},"f":{"d":"677,-1159v-89,-2,-124,49,-114,147r230,0v-5,77,-11,169,-16,278r-208,0r-33,734v-79,-1,-147,-2,-204,-2v-57,0,-124,1,-200,2v13,-128,28,-373,46,-734r-122,0v4,-36,15,-236,15,-278r142,0v-2,-125,-4,-233,43,-302v97,-142,389,-131,586,-73v2,106,6,194,13,264v-66,-24,-125,-36,-178,-36","w":811},"g":{"d":"268,-904v230,-191,633,-157,994,-87r-24,330r-23,426v-12,189,14,406,-60,538v-144,256,-664,191,-970,118r-17,-297v137,47,252,79,398,79v157,0,242,-69,252,-215v3,-28,5,-67,7,-116v-84,79,-176,137,-334,137v-268,0,-431,-185,-431,-453v0,-209,86,-359,208,-460xm451,-473v-4,116,65,199,175,199v111,0,183,-91,205,-194v13,-60,22,-151,24,-273v-41,-8,-78,-12,-111,-12v-181,-2,-288,111,-293,280","w":1350},"h":{"d":"889,-565v1,-113,-45,-170,-144,-170v-131,0,-190,77,-216,196v-32,146,-36,312,-43,539v-67,-1,-130,-2,-189,-2v-59,0,-131,1,-215,2v11,-99,18,-181,23,-245v9,-134,19,-290,29,-467v6,-117,11,-230,14,-338v3,-108,4,-213,4,-315v85,1,154,2,207,2v72,0,140,-1,204,-2r-21,242v-3,40,-9,121,-16,243v80,-114,188,-170,375,-170v228,0,400,89,396,320r-8,184r-27,442r0,104v-69,-1,-136,-2,-199,-2v-71,0,-144,1,-217,2v18,-136,42,-427,43,-565","w":1394},"i":{"d":"145,-1148v4,-79,6,-142,6,-188v0,-13,0,-31,-1,-54v81,1,148,2,203,2v75,0,141,-1,198,-2r-12,242v-66,-1,-129,-2,-190,-2v-63,0,-131,1,-204,2xm548,-1021v-34,297,-37,745,-38,1021v-79,-1,-148,-2,-205,-2v-57,0,-131,1,-223,2v41,-336,46,-639,54,-1021v87,1,156,2,208,2v47,0,115,-1,204,-2","w":639},"j":{"d":"145,-1151v7,-97,10,-177,11,-239v55,1,121,2,198,2v69,0,135,-1,196,-2v-7,97,-11,177,-13,239v-65,-2,-131,-3,-196,-3v-67,0,-133,1,-196,3xm539,-1021r-21,509r-12,587v-2,147,-13,256,-88,325v-133,124,-424,91,-641,54v-4,-73,-13,-171,-27,-296v150,52,320,32,342,-106v44,-278,38,-745,41,-1073v79,1,148,2,206,2v61,0,128,-1,200,-2","w":642},"k":{"d":"83,0v9,-85,17,-155,20,-208r27,-510v5,-107,8,-210,10,-308v3,-117,4,-230,4,-339v93,1,163,2,210,2v54,0,118,-1,192,-2v-15,175,-29,392,-42,651v-13,259,-19,497,-19,714v-77,-1,-143,-2,-196,-2v-61,0,-130,1,-206,2xm524,-574r172,-248r129,-199v92,1,162,2,209,2v65,0,143,-1,232,-2r-199,259v-47,59,-94,123,-143,192v47,86,159,276,337,570v-78,-1,-148,-2,-211,-2v-64,0,-137,1,-220,2r-119,-234v-6,-12,-52,-94,-137,-245","w":1277},"l":{"d":"86,-1r18,-215r39,-747r11,-402v93,1,162,2,209,2v61,0,128,-1,201,-2r-23,307r-37,756r-8,302","w":634},"m":{"d":"767,-580v-1,-94,-20,-156,-103,-156v-105,0,-133,97,-146,208v-15,122,-23,378,-25,528v-81,-1,-146,-2,-196,-2v-55,0,-124,1,-206,2r28,-482r16,-377r2,-162v73,1,138,2,194,2v63,0,125,-1,185,-2r-7,133v71,-101,164,-159,329,-159v158,0,250,51,303,161v69,-107,170,-161,333,-161v191,0,350,78,340,271r-24,458v-8,151,-12,257,-13,318v-61,-1,-121,-2,-178,-2v-70,0,-143,1,-220,2v7,-85,14,-190,21,-318v7,-128,10,-217,10,-266v0,-116,-60,-175,-157,-139v-116,78,-105,253,-111,455r-8,268v-71,-1,-136,-2,-193,-2v-59,0,-128,1,-207,2v10,-82,34,-493,33,-580","w":1909},"n":{"d":"887,-523v0,-130,-46,-202,-153,-202v-94,0,-160,68,-189,149v-44,122,-49,395,-55,576v-67,-1,-132,-2,-195,-2v-67,0,-139,1,-217,2v38,-292,59,-697,63,-1021v80,1,149,2,207,2v67,0,132,-1,194,-2r-10,136v84,-103,197,-162,379,-162v227,0,394,90,383,323r-25,526v-3,71,-5,137,-5,198v-67,-1,-130,-2,-189,-2v-79,0,-152,1,-217,2v10,-91,29,-428,29,-523","w":1392},"o":{"d":"657,26v-351,0,-597,-176,-597,-523v0,-360,261,-550,623,-550v343,0,586,175,586,520v0,361,-246,553,-612,553xm868,-531v1,-131,-65,-222,-192,-222v-146,0,-212,119,-215,268v-2,134,73,227,193,227v146,0,212,-124,214,-273","w":1329},"p":{"d":"1020,-12v-181,86,-421,15,-537,-89r-11,279v-5,128,-7,225,-7,290v-77,-1,-144,-2,-199,-2v-48,0,-117,1,-208,2v13,-137,23,-273,32,-409v15,-233,26,-427,32,-585v6,-158,8,-314,8,-469v297,-44,537,-84,813,-22v225,51,342,244,342,507v0,235,-104,422,-265,498xm894,-526v1,-141,-78,-239,-221,-237v-45,0,-97,8,-154,23v-14,73,-19,147,-20,228v-2,145,64,254,194,254v137,0,200,-124,201,-268","w":1345},"q":{"d":"823,-119v-87,86,-173,143,-333,145v-337,4,-496,-330,-402,-666v58,-208,208,-344,440,-384v253,-43,454,-21,737,22v-15,167,-28,322,-37,463v-9,141,-17,282,-22,423v-5,141,-9,335,-14,584v-63,-1,-130,-2,-200,-2v-59,0,-128,1,-209,2xm451,-450v-5,136,106,235,232,176v149,-69,146,-236,158,-468v-39,-7,-72,-11,-101,-11v-191,-3,-282,120,-289,303","w":1346},"r":{"d":"756,-719v-286,3,-265,292,-270,590v0,35,1,78,4,129v-65,-1,-130,-2,-195,-2v-65,0,-134,1,-208,2r31,-444r10,-255r-1,-322v81,1,145,2,192,2v55,0,119,-1,191,-2r-4,113v76,-94,177,-163,341,-129r12,334v-37,-11,-71,-16,-103,-16","w":880},"s":{"d":"885,-275v0,345,-488,332,-805,256r-29,-298v105,39,181,70,296,75v82,3,163,-29,127,-102v-117,-128,-350,-181,-350,-411v0,-210,178,-292,413,-292v93,0,211,12,355,36r16,281v-81,-32,-158,-48,-233,-48v-89,1,-161,9,-146,86v24,43,77,67,116,97v118,91,240,140,240,320","w":989},"t":{"d":"586,-481v-9,123,-3,212,104,212v59,0,73,-7,142,-25r-53,286v-109,24,-158,32,-262,34v-216,5,-350,-78,-336,-298r29,-459r-156,0r12,-275r166,0v4,-31,9,-98,15,-201r171,-35v31,-6,98,-21,200,-46v-5,87,-8,181,-10,282r228,0v-5,139,-8,230,-8,275r-230,0","w":872},"u":{"d":"509,-640v-28,199,-6,381,184,333v120,-30,145,-151,152,-301r19,-413v86,1,157,2,212,2v62,0,124,-1,187,-2v-15,169,-27,330,-36,483v-9,153,-15,332,-20,538v-76,-1,-139,-2,-190,-2v-63,0,-126,1,-189,2r-1,-137v-78,109,-183,163,-362,163v-235,0,-394,-111,-363,-367r16,-227v5,-83,9,-176,13,-277v3,-62,4,-121,4,-176v83,1,153,2,211,2v59,0,123,-1,194,-2","w":1345},"v":{"d":"363,0r-106,-328r-239,-693v76,1,147,2,212,2v68,0,132,-1,192,-2v11,46,34,126,67,241v33,115,70,252,110,411r26,-83r206,-569v72,1,140,2,204,2v66,0,135,-1,206,-2r-138,297r-257,590r-55,134v-79,-1,-148,-2,-208,-2v-65,0,-139,1,-220,2","w":1207},"w":{"d":"356,0v-147,-469,-260,-810,-338,-1021v65,1,131,2,197,2v62,0,121,-1,177,-2r142,524r24,103r66,-206r144,-421v65,1,131,2,198,2v71,0,134,-1,188,-2r138,560r13,67r216,-627v65,1,126,2,182,2v48,0,111,-1,190,-2r-368,863r-64,158v-69,-1,-128,-2,-176,-2v-53,0,-121,1,-205,2r-71,-289v-13,-55,-37,-161,-70,-316v-99,286,-171,488,-216,605v-70,-1,-127,-2,-170,-2v-50,0,-116,1,-197,2","w":1859},"x":{"d":"-20,0r228,-303r169,-232r-314,-486v97,1,181,2,251,2v88,0,160,-1,217,-2r135,294v51,-88,112,-186,182,-294v59,1,130,2,213,2v77,0,150,-1,219,-2r-160,210r-201,272v61,106,173,286,336,539v-75,-1,-150,-2,-223,-2v-89,0,-169,1,-240,2r-158,-330r-78,129r-127,201v-72,-1,-142,-2,-210,-2v-79,0,-158,1,-239,2","w":1301},"y":{"d":"-37,160v109,62,292,78,357,-27v27,-44,40,-57,56,-113r-188,-569r-161,-472v99,1,169,2,209,2v47,0,110,-1,191,-2r71,266v53,202,73,261,99,446r21,-80r56,-171r65,-182r108,-279v83,1,146,2,189,2v37,0,104,-1,200,-2r-193,436r-349,809v-81,213,-311,297,-606,250v-21,-3,-48,-9,-83,-17v-21,-159,-35,-258,-42,-297","w":1211},"z":{"d":"54,0v3,-74,5,-174,7,-300r71,-65r403,-390v-165,1,-305,6,-422,15r8,-281v80,1,232,2,455,2v178,0,316,-1,415,-2v-3,29,-8,135,-15,318r-462,432v65,2,157,3,278,3v47,0,102,-1,165,-4v-6,49,-13,140,-20,272v-86,-1,-233,-2,-440,-2v-203,0,-350,1,-443,2","w":1072},"{":{"d":"189,-117v20,-158,7,-249,-110,-279v4,-31,7,-66,8,-103v87,-29,126,-79,130,-198v5,-149,-5,-337,28,-463v50,-190,264,-206,517,-205v-5,28,-10,102,-15,222v-126,6,-188,28,-200,142v-19,170,29,438,-84,525v-11,9,-28,19,-51,30v77,32,102,102,102,213v0,42,-17,236,-19,333v-3,122,74,144,189,146r-14,222v-276,-2,-514,-23,-499,-282","w":885},"|":{"d":"327,-1365r365,0r0,1706r-365,0r0,-1706","w":1019},"}":{"d":"624,-663v0,101,46,145,116,162v-4,31,-7,66,-8,104v-89,26,-122,80,-130,194v-14,197,23,453,-84,563v-97,100,-250,105,-460,108v4,-28,9,-102,14,-222v132,-6,199,-33,202,-173r6,-245v5,-136,24,-241,128,-278v-78,-31,-101,-98,-103,-205v-1,-58,19,-288,19,-337v1,-120,-65,-150,-187,-151r12,-222v175,0,327,10,421,83v48,37,79,108,79,195v0,30,-25,393,-25,424","w":885},"~":{"d":"546,-514v-104,-32,-144,24,-186,106r-174,-147v64,-153,143,-328,368,-294v100,15,208,89,320,105v70,-5,100,-56,131,-115r175,146v-55,134,-94,223,-214,276v-152,67,-301,-41,-420,-77","w":1361},"\u00c4":{"d":"-79,0r83,-144r517,-974r122,-247v117,1,203,2,257,2v94,0,181,-1,261,-2r146,417r297,802r58,146v-115,-1,-185,-2,-210,-2v-56,0,-138,1,-247,2v-29,-110,-72,-239,-127,-388r-504,0v-58,117,-118,247,-180,388v-124,-1,-200,-2,-228,-2v-51,0,-132,1,-245,2xm695,-679r311,0v-77,-235,-120,-365,-127,-389v-44,98,-81,178,-112,241xm1017,-1504r11,-199v61,1,106,2,135,2v27,0,70,-1,127,-2v-1,23,-4,89,-8,199v-48,-2,-90,-3,-126,-3v-33,0,-79,1,-139,3xm630,-1504r12,-199v61,1,106,2,135,2v27,0,69,-1,126,-2r-8,199v-47,-2,-89,-3,-125,-3v-33,0,-79,1,-140,3","w":1667},"\u00c5":{"d":"904,-1859v119,0,206,86,206,205v0,118,-87,205,-206,205v-118,0,-204,-86,-204,-205v0,-119,86,-205,204,-205xm905,-1581v36,0,69,-33,69,-70v0,-38,-33,-71,-70,-71v-36,0,-69,33,-69,71v0,37,33,70,70,70xm-79,0r83,-144r517,-974r122,-247v117,1,203,2,257,2v94,0,181,-1,261,-2r146,417r297,802r58,146v-115,-1,-185,-2,-210,-2v-56,0,-138,1,-247,2v-29,-110,-72,-239,-127,-388r-504,0v-58,117,-118,247,-180,388v-124,-1,-200,-2,-228,-2v-51,0,-132,1,-245,2xm695,-679r311,0v-77,-235,-120,-365,-127,-389v-44,98,-81,178,-112,241","w":1667},"\u00c7":{"d":"982,-1082v-279,0,-469,167,-475,439v-3,160,82,268,193,321v167,80,396,40,582,-11v-8,39,-18,95,-29,165v-11,70,-19,124,-23,163v-377,60,-724,36,-940,-143v-139,-115,-216,-265,-216,-497v0,-390,233,-620,539,-705v231,-64,409,-49,678,-3r15,319v-127,-30,-200,-48,-324,-48xm1037,83r-139,279v-99,-2,-165,-3,-200,-3v-18,0,-86,1,-203,3v99,-131,169,-226,208,-284v44,4,77,6,98,7","w":1373},"\u00c9":{"d":"99,0v44,-428,69,-928,70,-1365v157,1,348,2,571,2v206,0,388,-1,545,-2r-15,300v-129,-5,-237,-8,-324,-8v-96,0,-160,1,-194,1v-34,0,-87,1,-158,4r-12,229v79,2,170,3,275,3v37,0,137,-2,298,-7v-7,85,-13,187,-19,305v-115,-1,-204,-2,-266,-2v-92,0,-195,2,-309,7r-12,243r533,-8v31,-1,82,-3,154,-8v-8,99,-15,201,-20,306r-1117,0xm555,-1492r99,-222v68,1,134,2,199,2v54,0,121,-1,202,-2r-193,222v-64,-1,-117,-2,-158,-2v-32,0,-82,1,-149,2","w":1350},"\u00d1":{"d":"101,0r20,-210r39,-712r11,-287r0,-156v103,1,195,2,274,2v57,0,136,-1,239,-2r428,776r59,114v7,-112,15,-269,23,-471v8,-202,11,-342,11,-419v82,1,148,2,197,2v23,0,88,-1,196,-2r-24,298r-45,828r-6,239v-87,-1,-168,-2,-243,-2v-63,0,-149,1,-260,2r-77,-142r-168,-285r-153,-268v-31,-54,-62,-113,-95,-178r-21,474r-10,399v-83,-1,-146,-2,-189,-2v-37,0,-105,1,-206,2xm796,-1575v-39,5,-49,27,-51,73v-76,-4,-85,-4,-161,0v6,-135,33,-241,151,-245v101,-4,152,95,241,95v41,0,49,-27,54,-72v38,2,66,3,84,3v18,0,46,-1,85,-3v1,135,-42,244,-159,247v-101,3,-155,-88,-244,-98","w":1681},"\u00d6":{"d":"74,-655v0,-488,361,-730,852,-736v355,-4,622,151,733,398v76,169,69,419,-5,591v-118,273,-394,426,-776,428v-365,2,-652,-153,-756,-410v-33,-81,-48,-172,-48,-271xm1281,-702v0,-230,-142,-388,-373,-388v-247,0,-398,183,-401,429v-3,231,156,381,381,381v241,0,393,-182,393,-422xm1026,-1504r11,-199v61,1,106,2,135,2v27,0,70,-1,127,-2v-1,23,-4,89,-8,199v-48,-2,-90,-3,-126,-3v-33,0,-79,1,-139,3xm639,-1504r12,-199v61,1,106,2,135,2v27,0,69,-1,126,-2r-8,199v-47,-2,-89,-3,-125,-3v-33,0,-79,1,-140,3","w":1774},"\u00dc":{"d":"160,-1365v104,1,177,2,220,2v53,0,124,-1,213,-2r-43,650v-6,165,-19,269,46,359v67,94,309,92,377,0v29,-39,53,-82,61,-148v28,-226,50,-586,55,-861v101,1,180,2,238,2r203,-2r-50,743v-8,238,-7,325,-97,442v-233,301,-1165,288,-1258,-100v-52,-216,6,-442,17,-690xm920,-1511r11,-199v61,1,106,2,135,2v27,0,70,-1,127,-2v-1,23,-4,89,-8,199v-48,-2,-90,-3,-126,-3v-33,0,-79,1,-139,3xm533,-1511r12,-199v61,1,106,2,135,2v27,0,69,-1,126,-2r-8,199v-47,-2,-89,-3,-125,-3v-33,0,-79,1,-140,3","w":1592},"\u00e1":{"d":"728,-722v24,-73,-42,-105,-121,-105v-115,0,-256,32,-425,97v13,-66,21,-111,24,-136r16,-118v192,-42,357,-63,495,-63v225,0,425,50,424,281v0,37,-5,121,-15,252v-10,131,-18,302,-23,514v-65,-1,-130,-2,-195,-2v-63,0,-129,1,-200,2v9,-73,20,-225,31,-454v-93,55,-254,49,-305,140v-45,82,47,140,149,118v16,-3,38,-8,66,-17v-19,51,-42,126,-69,225v-57,9,-112,14,-163,14v-227,0,-378,-102,-378,-300v0,-122,72,-201,150,-254v114,-79,339,-96,493,-150v22,-8,39,-24,46,-44xm506,-1164r99,-222v68,1,134,2,199,2v54,0,121,-1,202,-2r-193,222v-64,-1,-117,-2,-158,-2v-32,0,-82,1,-149,2","w":1240},"\u00e0":{"d":"728,-722v24,-73,-42,-105,-121,-105v-115,0,-256,32,-425,97v13,-66,21,-111,24,-136r16,-118v192,-42,357,-63,495,-63v225,0,425,50,424,281v0,37,-5,121,-15,252v-10,131,-18,302,-23,514v-65,-1,-130,-2,-195,-2v-63,0,-129,1,-200,2v9,-73,20,-225,31,-454v-93,55,-254,49,-305,140v-45,82,47,140,149,118v16,-3,38,-8,66,-17v-19,51,-42,126,-69,225v-57,9,-112,14,-163,14v-227,0,-378,-102,-378,-300v0,-122,72,-201,150,-254v114,-79,339,-96,493,-150v22,-8,39,-24,46,-44xm856,-1164v-69,-1,-119,-2,-149,-2v-43,0,-95,1,-158,2r-97,-125r-80,-97v83,1,151,2,202,2v67,0,133,-1,200,-2","w":1240},"\u00e2":{"d":"728,-722v24,-73,-42,-105,-121,-105v-115,0,-256,32,-425,97v13,-66,21,-111,24,-136r16,-118v192,-42,357,-63,495,-63v225,0,425,50,424,281v0,37,-5,121,-15,252v-10,131,-18,302,-23,514v-65,-1,-130,-2,-195,-2v-63,0,-129,1,-200,2v9,-73,20,-225,31,-454v-93,55,-254,49,-305,140v-45,82,47,140,149,118v16,-3,38,-8,66,-17v-19,51,-42,126,-69,225v-57,9,-112,14,-163,14v-227,0,-378,-102,-378,-300v0,-122,72,-201,150,-254v114,-79,339,-96,493,-150v22,-8,39,-24,46,-44xm367,-1163v37,-70,73,-145,109,-225v65,1,137,2,215,2v55,0,120,-1,197,-2v16,42,48,117,96,225v-45,-1,-84,-2,-119,-2v-25,0,-63,1,-114,2r-66,-98r-73,98v-39,-1,-78,-2,-117,-2v-45,0,-88,1,-128,2","w":1240},"\u00e4":{"d":"728,-722v24,-73,-42,-105,-121,-105v-115,0,-256,32,-425,97v13,-66,21,-111,24,-136r16,-118v192,-42,357,-63,495,-63v225,0,425,50,424,281v0,37,-5,121,-15,252v-10,131,-18,302,-23,514v-65,-1,-130,-2,-195,-2v-63,0,-129,1,-200,2v9,-73,20,-225,31,-454v-93,55,-254,49,-305,140v-45,82,47,140,149,118v16,-3,38,-8,66,-17v-19,51,-42,126,-69,225v-57,9,-112,14,-163,14v-227,0,-378,-102,-378,-300v0,-122,72,-201,150,-254v114,-79,339,-96,493,-150v22,-8,39,-24,46,-44xm742,-1178r11,-199v61,1,106,2,135,2v27,0,70,-1,127,-2v-1,23,-4,89,-8,199v-48,-2,-90,-3,-126,-3v-33,0,-79,1,-139,3xm355,-1178r12,-199v61,1,106,2,135,2v27,0,69,-1,126,-2r-8,199v-47,-2,-89,-3,-125,-3v-33,0,-79,1,-140,3","w":1240},"\u00e3":{"d":"728,-722v24,-73,-42,-105,-121,-105v-115,0,-256,32,-425,97v13,-66,21,-111,24,-136r16,-118v192,-42,357,-63,495,-63v225,0,425,50,424,281v0,37,-5,121,-15,252v-10,131,-18,302,-23,514v-65,-1,-130,-2,-195,-2v-63,0,-129,1,-200,2v9,-73,20,-225,31,-454v-93,55,-254,49,-305,140v-45,82,47,140,149,118v16,-3,38,-8,66,-17v-19,51,-42,126,-69,225v-57,9,-112,14,-163,14v-227,0,-378,-102,-378,-300v0,-122,72,-201,150,-254v114,-79,339,-96,493,-150v22,-8,39,-24,46,-44xm593,-1240v-39,5,-49,27,-51,73v-76,-4,-85,-4,-161,0v6,-135,33,-241,151,-245v101,-4,152,95,241,95v41,0,49,-27,54,-72v38,2,66,3,84,3v18,0,46,-1,85,-3v1,135,-42,244,-159,247v-101,3,-155,-88,-244,-98","w":1240},"\u00e5":{"d":"728,-722v24,-73,-42,-105,-121,-105v-115,0,-256,32,-425,97v13,-66,21,-111,24,-136r16,-118v192,-42,357,-63,495,-63v225,0,425,50,424,281v0,37,-5,121,-15,252v-10,131,-18,302,-23,514v-65,-1,-130,-2,-195,-2v-63,0,-129,1,-200,2v9,-73,20,-225,31,-454v-93,55,-254,49,-305,140v-45,82,47,140,149,118v16,-3,38,-8,66,-17v-19,51,-42,126,-69,225v-57,9,-112,14,-163,14v-227,0,-378,-102,-378,-300v0,-122,72,-201,150,-254v114,-79,339,-96,493,-150v22,-8,39,-24,46,-44xm681,-1549v115,0,200,84,200,200v0,116,-85,200,-200,200v-116,0,-200,-85,-200,-200v0,-115,85,-200,200,-200xm681,-1277v36,0,69,-32,69,-69v0,-37,-32,-69,-69,-69v-37,0,-69,32,-69,69v0,36,33,69,69,69","w":1240},"\u00e7":{"d":"461,-501v0,183,128,256,311,226v72,-12,101,-19,168,-44r-50,307v-240,59,-523,52,-672,-76v-149,-128,-199,-417,-116,-644v76,-206,247,-320,527,-315v126,2,200,12,321,40r19,304v-95,-33,-180,-50,-253,-50v-161,1,-255,91,-255,252xm727,83r-132,264v-68,-1,-132,-2,-191,-2v-59,0,-126,1,-203,2v63,-77,132,-167,206,-270v59,11,232,10,320,6","w":1036},"\u00e9":{"d":"455,-473v-20,223,202,267,415,223v56,-12,125,-27,208,-52v-9,40,-25,137,-50,290v-244,52,-560,64,-746,-37v-138,-75,-222,-223,-222,-430v0,-352,216,-569,583,-569v313,0,524,139,526,447v0,38,-4,80,-13,127xm793,-626v17,-138,-77,-222,-206,-180v-76,25,-112,88,-124,180r330,0xm470,-1164r99,-222v68,1,134,2,199,2v54,0,121,-1,202,-2r-193,222v-64,-1,-117,-2,-158,-2v-32,0,-82,1,-149,2","w":1212},"\u00e8":{"d":"455,-473v-20,223,202,267,415,223v56,-12,125,-27,208,-52v-9,40,-25,137,-50,290v-244,52,-560,64,-746,-37v-138,-75,-222,-223,-222,-430v0,-352,216,-569,583,-569v313,0,524,139,526,447v0,38,-4,80,-13,127xm793,-626v17,-138,-77,-222,-206,-180v-76,25,-112,88,-124,180r330,0xm815,-1164v-69,-1,-119,-2,-149,-2v-43,0,-95,1,-158,2r-97,-125r-80,-97v83,1,151,2,202,2v67,0,133,-1,200,-2","w":1212},"\u00ea":{"d":"455,-473v-20,223,202,267,415,223v56,-12,125,-27,208,-52v-9,40,-25,137,-50,290v-244,52,-560,64,-746,-37v-138,-75,-222,-223,-222,-430v0,-352,216,-569,583,-569v313,0,524,139,526,447v0,38,-4,80,-13,127xm793,-626v17,-138,-77,-222,-206,-180v-76,25,-112,88,-124,180r330,0xm332,-1163v37,-70,73,-145,109,-225v65,1,137,2,215,2v55,0,120,-1,197,-2v16,42,48,117,96,225v-45,-1,-84,-2,-119,-2v-25,0,-63,1,-114,2r-66,-98r-73,98v-39,-1,-78,-2,-117,-2v-45,0,-88,1,-128,2","w":1212},"\u00eb":{"d":"455,-473v-20,223,202,267,415,223v56,-12,125,-27,208,-52v-9,40,-25,137,-50,290v-244,52,-560,64,-746,-37v-138,-75,-222,-223,-222,-430v0,-352,216,-569,583,-569v313,0,524,139,526,447v0,38,-4,80,-13,127xm793,-626v17,-138,-77,-222,-206,-180v-76,25,-112,88,-124,180r330,0xm706,-1178r11,-199v61,1,106,2,135,2v27,0,70,-1,127,-2v-1,23,-4,89,-8,199v-48,-2,-90,-3,-126,-3v-33,0,-79,1,-139,3xm319,-1178r12,-199v61,1,106,2,135,2v27,0,69,-1,126,-2r-8,199v-47,-2,-89,-3,-125,-3v-33,0,-79,1,-140,3","w":1212},"\u00ed":{"d":"548,-1021v-34,297,-37,745,-38,1021v-79,-1,-148,-2,-205,-2v-57,0,-131,1,-223,2v41,-336,46,-639,54,-1021v87,1,156,2,208,2v47,0,115,-1,204,-2xm177,-1164r99,-222v68,1,134,2,199,2v54,0,121,-1,202,-2r-193,222v-64,-1,-117,-2,-158,-2v-32,0,-82,1,-149,2","w":639},"\u00ec":{"d":"550,-1021v-34,297,-37,745,-38,1021v-79,-1,-148,-2,-205,-2v-57,0,-131,1,-223,2v41,-336,46,-639,54,-1021v87,1,156,2,208,2v47,0,115,-1,204,-2xm524,-1164v-69,-1,-119,-2,-149,-2v-43,0,-95,1,-158,2r-97,-125r-80,-97v83,1,151,2,202,2v67,0,133,-1,200,-2","w":639},"\u00ee":{"d":"554,-1021v-34,297,-37,745,-38,1021v-79,-1,-148,-2,-205,-2v-57,0,-131,1,-223,2v41,-336,46,-639,54,-1021v87,1,156,2,208,2v47,0,115,-1,204,-2xm42,-1163v37,-70,73,-145,109,-225v65,1,137,2,215,2v55,0,120,-1,197,-2v16,42,48,117,96,225v-45,-1,-84,-2,-119,-2v-25,0,-63,1,-114,2r-66,-98r-73,98v-39,-1,-78,-2,-117,-2v-45,0,-88,1,-128,2","w":639},"\u00ef":{"d":"576,-1021v-34,297,-37,745,-38,1021v-79,-1,-148,-2,-205,-2v-57,0,-131,1,-223,2v41,-336,46,-639,54,-1021v87,1,156,2,208,2v47,0,115,-1,204,-2xm442,-1179r11,-199v61,1,106,2,135,2v27,0,70,-1,127,-2v-1,23,-4,89,-8,199v-48,-2,-90,-3,-126,-3v-33,0,-79,1,-139,3xm55,-1179r12,-199v61,1,106,2,135,2v27,0,69,-1,126,-2r-8,199v-47,-2,-89,-3,-125,-3v-33,0,-79,1,-140,3","w":639},"\u00f1":{"d":"887,-523v0,-130,-46,-202,-153,-202v-94,0,-160,68,-189,149v-44,122,-49,395,-55,576v-67,-1,-132,-2,-195,-2v-67,0,-139,1,-217,2v38,-292,59,-697,63,-1021v80,1,149,2,207,2v67,0,132,-1,194,-2r-10,136v84,-103,197,-162,379,-162v227,0,394,90,383,323r-25,526v-3,71,-5,137,-5,198v-67,-1,-130,-2,-189,-2v-79,0,-152,1,-217,2v10,-91,29,-428,29,-523xm637,-1240v-39,5,-49,27,-51,73v-76,-4,-85,-4,-161,0v6,-135,33,-241,151,-245v101,-4,152,95,241,95v41,0,49,-27,54,-72v38,2,66,3,84,3v18,0,46,-1,85,-3v1,135,-42,244,-159,247v-101,3,-155,-88,-244,-98","w":1392},"\u00f3":{"d":"657,26v-351,0,-597,-176,-597,-523v0,-360,261,-550,623,-550v343,0,586,175,586,520v0,361,-246,553,-612,553xm868,-531v1,-131,-65,-222,-192,-222v-146,0,-212,119,-215,268v-2,134,73,227,193,227v146,0,212,-124,214,-273xm522,-1164r99,-222v68,1,134,2,199,2v54,0,121,-1,202,-2r-193,222v-64,-1,-117,-2,-158,-2v-32,0,-82,1,-149,2","w":1329},"\u00f2":{"d":"657,26v-351,0,-597,-176,-597,-523v0,-360,261,-550,623,-550v343,0,586,175,586,520v0,361,-246,553,-612,553xm868,-531v1,-131,-65,-222,-192,-222v-146,0,-212,119,-215,268v-2,134,73,227,193,227v146,0,212,-124,214,-273xm867,-1164v-69,-1,-119,-2,-149,-2v-43,0,-95,1,-158,2r-97,-125r-80,-97v83,1,151,2,202,2v67,0,133,-1,200,-2","w":1329},"\u00f4":{"d":"657,26v-351,0,-597,-176,-597,-523v0,-360,261,-550,623,-550v343,0,586,175,586,520v0,361,-246,553,-612,553xm868,-531v1,-131,-65,-222,-192,-222v-146,0,-212,119,-215,268v-2,134,73,227,193,227v146,0,212,-124,214,-273xm384,-1163v37,-70,73,-145,109,-225v65,1,137,2,215,2v55,0,120,-1,197,-2v16,42,48,117,96,225v-45,-1,-84,-2,-119,-2v-25,0,-63,1,-114,2r-66,-98r-73,98v-39,-1,-78,-2,-117,-2v-45,0,-88,1,-128,2","w":1329},"\u00f6":{"d":"657,26v-351,0,-597,-176,-597,-523v0,-360,261,-550,623,-550v343,0,586,175,586,520v0,361,-246,553,-612,553xm868,-531v1,-131,-65,-222,-192,-222v-146,0,-212,119,-215,268v-2,134,73,227,193,227v146,0,212,-124,214,-273xm759,-1178r11,-199v61,1,106,2,135,2v27,0,70,-1,127,-2v-1,23,-4,89,-8,199v-48,-2,-90,-3,-126,-3v-33,0,-79,1,-139,3xm372,-1178r12,-199v61,1,106,2,135,2v27,0,69,-1,126,-2r-8,199v-47,-2,-89,-3,-125,-3v-33,0,-79,1,-140,3","w":1329},"\u00f5":{"d":"657,26v-351,0,-597,-176,-597,-523v0,-360,261,-550,623,-550v343,0,586,175,586,520v0,361,-246,553,-612,553xm868,-531v1,-131,-65,-222,-192,-222v-146,0,-212,119,-215,268v-2,134,73,227,193,227v146,0,212,-124,214,-273xm609,-1240v-39,5,-49,27,-51,73v-76,-4,-85,-4,-161,0v6,-135,33,-241,151,-245v101,-4,152,95,241,95v41,0,49,-27,54,-72v38,2,66,3,84,3v18,0,46,-1,85,-3v1,135,-42,244,-159,247v-101,3,-155,-88,-244,-98","w":1329},"\u00fa":{"d":"510,-640v-28,199,-6,381,184,333v120,-30,145,-151,152,-301r19,-413v86,1,157,2,212,2v62,0,124,-1,187,-2v-15,169,-27,330,-36,483v-9,153,-15,332,-20,538v-76,-1,-139,-2,-190,-2v-63,0,-126,1,-189,2r-1,-137v-78,109,-183,163,-362,163v-235,0,-394,-111,-363,-367r16,-227v5,-83,9,-176,13,-277v3,-62,4,-121,4,-176v83,1,153,2,211,2v59,0,123,-1,194,-2xm535,-1164r99,-222v68,1,134,2,199,2v54,0,121,-1,202,-2r-193,222v-64,-1,-117,-2,-158,-2v-32,0,-82,1,-149,2","w":1346},"\u00f9":{"d":"510,-640v-28,199,-6,381,184,333v120,-30,145,-151,152,-301r19,-413v86,1,157,2,212,2v62,0,124,-1,187,-2v-15,169,-27,330,-36,483v-9,153,-15,332,-20,538v-76,-1,-139,-2,-190,-2v-63,0,-126,1,-189,2r-1,-137v-78,109,-183,163,-362,163v-235,0,-394,-111,-363,-367r16,-227v5,-83,9,-176,13,-277v3,-62,4,-121,4,-176v83,1,153,2,211,2v59,0,123,-1,194,-2xm880,-1164v-69,-1,-119,-2,-149,-2v-43,0,-95,1,-158,2r-97,-125r-80,-97v83,1,151,2,202,2v67,0,133,-1,200,-2","w":1346},"\u00fb":{"d":"510,-640v-28,199,-6,381,184,333v120,-30,145,-151,152,-301r19,-413v86,1,157,2,212,2v62,0,124,-1,187,-2v-15,169,-27,330,-36,483v-9,153,-15,332,-20,538v-76,-1,-139,-2,-190,-2v-63,0,-126,1,-189,2r-1,-137v-78,109,-183,163,-362,163v-235,0,-394,-111,-363,-367r16,-227v5,-83,9,-176,13,-277v3,-62,4,-121,4,-176v83,1,153,2,211,2v59,0,123,-1,194,-2xm397,-1163v37,-70,73,-145,109,-225v65,1,137,2,215,2v55,0,120,-1,197,-2v16,42,48,117,96,225v-45,-1,-84,-2,-119,-2v-25,0,-63,1,-114,2r-66,-98r-73,98v-39,-1,-78,-2,-117,-2v-45,0,-88,1,-128,2","w":1346},"\u00fc":{"d":"510,-640v-28,199,-6,381,184,333v120,-30,145,-151,152,-301r19,-413v86,1,157,2,212,2v62,0,124,-1,187,-2v-15,169,-27,330,-36,483v-9,153,-15,332,-20,538v-76,-1,-139,-2,-190,-2v-63,0,-126,1,-189,2r-1,-137v-78,109,-183,163,-362,163v-235,0,-394,-111,-363,-367r16,-227v5,-83,9,-176,13,-277v3,-62,4,-121,4,-176v83,1,153,2,211,2v59,0,123,-1,194,-2xm772,-1178r11,-199v61,1,106,2,135,2v27,0,70,-1,127,-2v-1,23,-4,89,-8,199v-48,-2,-90,-3,-126,-3v-33,0,-79,1,-139,3xm385,-1178r12,-199v61,1,106,2,135,2v27,0,69,-1,126,-2r-8,199v-47,-2,-89,-3,-125,-3v-33,0,-79,1,-140,3","w":1346},"\u2020":{"d":"837,-939r317,-3v-8,95,-13,188,-15,281r-317,-3r-51,1132v-67,-1,-128,-2,-182,-2v-55,0,-115,1,-182,2r58,-1132r-319,3v3,-37,7,-85,10,-141v3,-56,4,-103,5,-140r317,3r18,-426v72,1,133,2,182,2v50,0,111,-1,182,-2","w":1232},"\u00b0":{"d":"352,-1380v128,0,222,94,222,222v0,128,-93,223,-222,223v-129,0,-223,-95,-223,-223v0,-129,94,-222,223,-222xm352,-1069v46,0,85,-43,85,-89v0,-46,-39,-89,-85,-89v-47,0,-86,41,-86,89v0,48,39,89,86,89","w":645},"\u00a2":{"d":"631,-684v0,187,140,260,333,223v40,-8,84,-17,131,-32v-21,123,-37,225,-48,307v-89,16,-92,18,-175,25v-4,61,-4,163,-2,216v-51,-1,-101,-2,-151,-2v-46,0,-100,1,-161,2r10,-225v-235,-53,-355,-221,-355,-500v0,-300,137,-487,399,-539r-2,-219v64,1,120,2,167,2v51,0,101,-1,152,-2v-5,52,-9,118,-12,197v55,6,112,17,171,33v3,56,12,161,27,316v-85,-37,-165,-56,-242,-56v-149,-1,-242,102,-242,254"},"\u00a3":{"d":"676,-327v146,29,326,62,481,23v47,-12,90,-29,130,-48r-62,341v-213,89,-481,-14,-669,-51v-144,-28,-287,10,-374,73r15,-293v115,-27,168,-121,159,-264v-82,2,-158,5,-229,9r48,-289r95,0v-16,-60,-45,-106,-45,-181v0,-211,176,-337,363,-368v190,-32,379,-18,565,19v1,47,8,160,21,337v-116,-42,-183,-72,-307,-75v-110,-3,-210,46,-213,142v-1,40,22,85,28,119r428,-5r-55,294v-51,-1,-93,-2,-127,-2v-72,0,-139,2,-202,6v-6,56,-2,119,-24,160"},"\u00a7":{"d":"418,-1347v188,-81,450,-40,639,30r-11,275v-103,-37,-162,-58,-268,-63v-88,-4,-159,68,-108,137v48,65,54,51,152,122v126,91,236,142,292,283v13,34,18,71,18,111v0,180,-95,281,-220,384v52,57,85,106,85,206v0,224,-187,345,-421,345v-129,0,-281,-28,-457,-84v3,-71,6,-169,8,-296v117,51,187,80,310,90v98,8,158,-79,101,-144v-150,-170,-459,-215,-459,-517v0,-174,103,-279,228,-374v-51,-61,-82,-106,-82,-205v0,-138,86,-254,193,-300xm507,-657v-66,34,-110,145,-48,215v61,69,176,139,257,197v57,-45,85,-117,43,-197v-55,-104,-160,-144,-252,-215","w":1231},"\u2022":{"d":"683,-982v162,0,279,122,279,286v0,164,-118,286,-281,286v-163,0,-282,-123,-282,-286v0,-165,118,-286,284,-286","w":1361},"\u00b6":{"d":"1115,-1186r-27,488r-54,1173v-78,-4,-119,-4,-197,0r80,-1662r-116,0r-31,573r-49,1089v-39,-2,-72,-3,-99,-3v-28,0,-61,1,-99,3r51,-1049v-198,-3,-316,-65,-403,-176v-75,-94,-98,-275,-39,-406v65,-145,180,-210,396,-209r396,2v105,0,234,-1,388,-2v-5,49,-8,109,-10,182"},"\u00df":{"d":"740,-924v123,-30,89,-206,-43,-206v-77,0,-130,37,-144,96v-40,172,-39,512,-55,745v-8,110,-10,206,-11,289v-69,-1,-137,-2,-204,-2v-61,0,-129,1,-205,2r27,-286r44,-728v19,-238,176,-329,387,-364v290,-47,624,-10,624,293v0,140,-61,213,-167,250v-64,22,-69,84,-17,121v137,97,307,172,307,396v0,264,-233,371,-515,336v-47,-5,-94,-12,-142,-23v-5,-76,-12,-173,-23,-292v67,19,120,29,161,29v66,0,134,-38,129,-108v-15,-195,-300,-203,-243,-446v12,-52,39,-90,90,-102","w":1340},"\u00ae":{"d":"74,-648v0,-480,319,-735,810,-738v350,-1,611,150,708,404v31,82,46,172,46,269v0,480,-311,734,-794,734v-452,0,-770,-216,-770,-669xm1470,-699v0,-356,-229,-536,-589,-536v-388,0,-639,207,-639,587v0,350,246,518,607,518v380,0,621,-194,621,-569xm986,-829v0,-88,-115,-67,-213,-67v-9,101,-19,472,-19,581v-53,-1,-96,-2,-127,-2v-35,0,-76,1,-123,2v28,-244,34,-485,35,-748v55,1,95,2,120,2v246,3,569,-64,569,199v0,123,-79,187,-173,220v31,85,115,246,149,327r-269,-1v-45,-149,-100,-288,-154,-427v94,19,205,4,205,-86","w":1697},"\u00a9":{"d":"74,-648v0,-480,319,-735,810,-738v350,-1,611,150,708,404v31,82,46,172,46,269v0,480,-311,734,-794,734v-452,0,-770,-216,-770,-669xm1470,-699v0,-356,-229,-536,-589,-536v-388,0,-639,207,-639,587v0,350,246,518,607,518v380,0,621,-194,621,-569xm694,-670v-2,122,93,193,222,193v55,0,126,-11,211,-33v-7,28,-29,160,-31,191v-81,11,-154,17,-219,17v-244,1,-441,-123,-437,-367v6,-347,332,-460,689,-386v1,45,4,106,10,185v-78,-19,-141,-28,-189,-28v-149,1,-253,85,-256,228","w":1697},"\u2122":{"d":"1090,-1088v-7,56,-31,435,-29,501r-222,0r27,-242r41,-536r335,0v21,142,76,282,104,447v45,-163,108,-288,152,-447r342,0r-14,319r-7,376r1,83r-232,0r18,-507v-10,33,-13,43,-26,81r-146,426r-225,0r-40,-179xm574,-1186v-15,147,-25,446,-25,599r-272,0v21,-196,32,-395,34,-598r-246,6v4,-81,6,-143,6,-186r755,0r-7,185v-77,-4,-158,-6,-245,-6","w":1933},"\u00b4":{"d":"369,-1164r99,-222v68,1,134,2,199,2v54,0,121,-1,202,-2r-193,222v-64,-1,-117,-2,-158,-2v-32,0,-82,1,-149,2","w":1024},"\u00a8":{"d":"606,-1178r11,-199v61,1,106,2,135,2v27,0,70,-1,127,-2v-1,23,-4,89,-8,199v-48,-2,-90,-3,-126,-3v-33,0,-79,1,-139,3xm219,-1178r12,-199v61,1,106,2,135,2v27,0,69,-1,126,-2r-8,199v-47,-2,-89,-3,-125,-3v-33,0,-79,1,-140,3","w":1024},"\u2260":{"d":"593,-62v-54,-19,-190,-58,-249,-72r91,-255r-350,3v6,-71,10,-154,13,-249r422,3r50,-142r-463,3v6,-71,10,-154,13,-249r533,3r100,-295v73,24,156,48,250,72r-80,223r348,-3v-7,71,-11,154,-14,249r-419,-3r-50,142r461,-3v-7,71,-11,154,-13,249r-531,-4"},"\u00c6":{"d":"-79,0r186,-352r460,-920r41,-93r1304,0v-8,105,-14,202,-18,291v-95,-3,-201,-5,-320,-5v-69,0,-177,2,-324,7r46,238v41,1,125,2,252,2v93,0,172,-2,239,-5r-11,140v-1,22,-3,72,-5,149v-50,-2,-117,-3,-201,-3v-87,0,-162,2,-226,5r53,274v115,0,200,-1,253,-3v53,-2,117,-6,192,-12v-8,95,-13,190,-15,287v-170,-1,-293,-2,-369,-2v-129,0,-271,1,-427,2r-43,-271v-7,-44,-16,-92,-26,-144r-399,0v-51,95,-118,233,-201,415v-113,-1,-187,-2,-221,-2v-49,0,-123,1,-220,2xm670,-677r276,0r-72,-434r-58,131","w":1972},"\u00d8":{"d":"74,-668v0,-550,502,-821,1065,-689r109,-177v65,2,126,3,181,3v58,0,118,-1,180,-3r-183,281v154,110,264,279,264,540v0,481,-319,739,-800,739v-133,0,-138,-13,-276,-36r-100,167v-66,-2,-124,-3,-173,-3v-52,0,-110,1,-173,3r171,-270v-164,-107,-265,-289,-265,-555xm988,-1089v-304,-54,-504,147,-504,429v0,96,28,182,72,241xm769,-283v339,73,571,-206,489,-547v-10,-42,-30,-81,-54,-116","w":1750},"\u221e":{"d":"1002,-366v-145,0,-246,-86,-315,-174v-76,92,-177,174,-324,174v-198,0,-330,-131,-330,-333v0,-198,136,-321,327,-326v142,-4,249,90,316,173v69,-87,177,-175,325,-172v196,3,327,129,327,329v0,201,-132,329,-326,329xm1083,-696v0,-97,-120,-147,-200,-88v-26,19,-55,47,-85,89v45,60,85,111,166,115v64,3,119,-52,119,-116xm278,-695v0,65,57,115,120,115v57,0,112,-38,165,-115v-46,-62,-84,-111,-166,-115v-63,-3,-119,51,-119,115","w":1361},"\u00b1":{"d":"101,-726v6,-65,10,-148,13,-249v176,2,325,3,448,3r13,-343v33,1,77,2,130,2v53,0,96,-1,130,-2r-21,343r451,-3v-7,71,-11,154,-13,249r-450,-3r-13,343v-70,-4,-190,-4,-259,0r20,-343xm69,-79v6,-64,11,-147,14,-249v190,2,381,3,574,3v193,0,385,-1,576,-3v-6,71,-10,154,-13,249r-575,-4"},"\u2264":{"d":"953,-1362r0,341r-492,141r491,139r1,340r-887,-328r0,-304xm953,-347r0,319r-887,0r0,-319r887,0","w":1019},"\u2265":{"d":"66,-401r2,-340r490,-139r-492,-141r0,-341r887,329r0,304xm66,-28r0,-319r887,0r0,319r-887,0","w":1019},"\u00a5":{"d":"86,-374v7,-71,12,-146,14,-225v187,3,307,5,359,5r-91,-163v-31,0,-125,1,-284,4v7,-73,12,-148,14,-225v82,1,132,2,150,2r-222,-389v73,1,141,2,204,2v66,0,134,-1,204,-2r64,139r184,371v65,-118,124,-221,179,-310v55,-89,94,-155,118,-200v74,1,139,2,194,2v58,0,123,-1,194,-2r-254,390r177,-3v-10,73,-17,148,-22,225r-291,-4v-4,5,-38,60,-101,163r374,-5v-9,66,-16,141,-21,225v-169,-3,-300,-5,-394,-5r-10,215r-4,164v-73,-1,-138,-2,-194,-2v-59,0,-124,1,-195,2v13,-108,22,-234,29,-379"},"\u00b5":{"d":"569,20v-74,0,-109,-15,-148,-56r1,504v-71,-1,-132,-2,-183,-2v-44,0,-108,1,-191,2v18,-186,36,-444,56,-775v20,-331,30,-569,30,-714v83,1,153,2,212,2v59,0,123,-1,193,-2r-27,340r-11,202v-5,135,61,204,175,173v116,-31,137,-153,144,-304r18,-411v87,1,158,2,213,2v61,0,123,-1,186,-2v-13,150,-24,300,-33,449v-9,149,-17,339,-23,572v-75,-1,-138,-2,-189,-2v-62,0,-124,1,-187,2r4,-137v-48,96,-107,157,-240,157"},"\u2202":{"d":"668,-812v-95,-196,-297,-254,-562,-278r39,-266v373,32,622,171,767,428v96,171,114,516,18,696v-80,149,-220,249,-431,249v-227,0,-375,-124,-439,-293v-22,-59,-33,-119,-33,-180v2,-291,242,-490,549,-408v43,11,58,26,92,52xm508,-255v103,0,176,-80,176,-188v0,-107,-71,-186,-175,-186v-99,0,-177,82,-177,187v0,105,74,187,176,187","w":1019},"\u2211":{"d":"1288,-1536r0,542r-310,0r-38,-224r-488,0r491,677r-488,735r504,0r21,-235r326,0r0,553r-1240,0r0,-365r470,-687r-470,-630r0,-366r1222,0","w":1361},"\u220f":{"d":"32,-1536r1301,0r0,277r-146,0r0,1494r146,0r0,277r-580,0r0,-277r125,0r0,-1494r-391,0r0,1494r123,0r0,277r-578,0r0,-277r149,0r0,-1494r-149,0r0,-277","w":1365},"\u03c0":{"d":"189,0r0,-727r-149,0r0,-256r1238,0r0,256r-149,0r0,727r-322,0r0,-727r-296,0r0,727r-322,0","w":1319},"\u222b":{"d":"816,-1209v-105,0,-121,65,-121,195r-1,1075v0,321,-206,482,-550,444v-34,-3,-64,-8,-89,-14r56,-326v110,48,213,7,213,-124r2,-1137v1,-213,92,-343,243,-406v112,-46,256,-43,395,-14r-55,327v-34,-13,-65,-20,-93,-20","w":1020},"\u00aa":{"d":"471,-994v-1,-32,-33,-39,-70,-39v-71,0,-160,20,-268,61r27,-167v119,-26,222,-39,309,-39v140,0,266,32,266,173v0,23,-3,73,-9,151v-6,78,-11,181,-14,308v-46,-1,-88,-2,-126,-2v-38,0,-82,1,-131,2v7,-41,14,-132,22,-271v-57,33,-172,23,-184,97v2,61,91,60,143,35v-13,36,-28,84,-44,145v-38,6,-73,9,-106,9v-141,0,-238,-61,-238,-184v0,-82,61,-137,124,-171v43,-23,222,-51,278,-76v15,-7,21,-19,21,-32","w":789},"\u00ba":{"d":"62,-846v0,-217,170,-332,388,-332v205,0,364,105,364,314v0,218,-161,332,-381,333v-212,0,-371,-108,-371,-315xm555,-865v1,-75,-40,-125,-110,-125v-84,0,-122,65,-123,150v-1,75,42,127,111,127v83,0,121,-69,122,-152","w":843},"\u2126":{"d":"396,-700v4,202,72,359,216,424r0,276r-558,0r0,-300r253,0v-151,-90,-261,-223,-261,-460v0,-249,141,-450,310,-552v186,-113,459,-113,647,0v170,102,311,303,311,553v0,236,-108,370,-261,459r253,0r0,300r-558,0r0,-276v143,-68,214,-215,217,-421v2,-160,-51,-274,-138,-346v-43,-35,-92,-53,-147,-53v-175,0,-288,195,-284,396","w":1361},"\u00e6":{"d":"702,-706v45,-66,-8,-129,-106,-123v-144,9,-283,46,-414,97r41,-256v147,-35,293,-59,437,-59v147,0,250,25,320,104v91,-70,173,-104,314,-104v282,0,487,140,482,444v0,46,-4,89,-13,129r-693,0v-5,171,99,240,258,240v85,0,202,-21,353,-64v-13,66,-29,162,-50,289v-287,52,-578,63,-749,-75v-100,-81,-177,-189,-182,-363v-76,64,-272,49,-272,173v0,49,55,81,109,79v33,0,76,-8,127,-25v-18,65,-37,140,-57,225v-113,30,-317,26,-408,-21v-113,-58,-203,-190,-147,-344v56,-155,172,-205,356,-252r243,-62v23,-8,41,-18,51,-32xm1406,-624v25,-146,-96,-226,-222,-175v-69,28,-90,85,-104,175r326,0","w":1820},"\u00f8":{"d":"310,-950v125,-72,313,-126,495,-80r60,-110r325,1r-117,212v114,83,188,196,188,389v0,249,-126,414,-304,496v-151,70,-256,87,-435,51r-59,108r-165,-2r-166,2r121,-208v-113,-88,-193,-203,-193,-400v0,-223,101,-374,250,-459xm859,-539v2,-126,-68,-225,-189,-224v-144,2,-209,121,-209,267v0,132,66,228,194,228v143,0,203,-125,204,-271","w":1321},"\u00bf":{"d":"822,-1021r-26,336v-85,-1,-155,-2,-208,-2v-58,0,-126,1,-204,2v7,-76,11,-141,13,-194v2,-53,4,-101,7,-142v90,1,157,2,202,2v47,0,119,-1,216,-2xm492,-74v-52,108,75,147,198,147v93,0,202,-20,326,-60r-43,223v-5,26,-10,60,-16,102v-352,51,-757,71,-907,-157v-80,-122,-14,-285,52,-365v77,-94,194,-178,262,-281v25,-38,28,-65,37,-126v67,2,128,3,182,3v53,0,117,-1,193,-2v-3,172,-33,247,-117,333r-117,120v-18,18,-40,42,-50,63","w":1069},"\u00a1":{"d":"156,-1021v95,1,167,2,216,2v35,0,102,-1,203,-2v-6,71,-12,187,-19,348v-87,-1,-154,-2,-201,-2v-62,0,-133,1,-214,2xm159,-511v78,1,146,2,205,2v44,0,99,-1,164,-2r-15,703r0,152v-91,-1,-158,-2,-200,-2v-59,0,-129,1,-211,2r43,-612v4,-55,9,-136,14,-243","w":696},"\u00ac":{"d":"599,0r0,-285r-533,0r0,-319r887,0r0,604r-354,0","w":1019},"\u221a":{"d":"1363,-1693r0,286r-327,0r-340,1407r-405,0r-105,-497r-188,0r0,-286r384,0r46,193v17,68,41,206,45,277r43,-265v11,-58,19,-98,24,-120r243,-995r580,0","w":1361},"\u0192":{"d":"63,-19v94,45,204,56,258,-21v46,-65,51,-133,72,-247r95,-507r-137,3v24,-97,42,-189,53,-276r139,3v36,-220,100,-381,309,-424v150,-31,294,-6,425,35v-17,71,-28,152,-34,243v-114,-41,-205,-65,-280,-1v-27,23,-45,74,-59,147r262,-3v-9,25,-62,248,-66,276r-253,-3r-123,591v-29,139,-47,208,-92,299v-71,145,-263,203,-478,166v-49,-7,-94,-18,-137,-32v20,-83,35,-166,46,-249"},"\u2248":{"d":"371,-796v-95,-28,-138,15,-184,83r-174,-123v64,-154,143,-330,369,-294v92,15,195,77,284,100v87,22,130,-31,166,-88r175,123v-55,135,-95,223,-215,277v-153,68,-300,-43,-421,-78xm370,-316v-94,-29,-138,16,-183,83r-174,-124v64,-153,145,-330,369,-293v90,15,194,78,284,100v88,22,126,-27,166,-88r175,123v-55,135,-95,224,-215,277v-153,68,-300,-41,-422,-78","w":1019},"\u2206":{"d":"30,0r475,-1365r357,0r479,1365r-1311,0xm469,-300r426,0r-209,-701","w":1371},"\u00ab":{"d":"241,-192r-180,-342r195,-340v59,1,101,2,127,2v30,0,76,-1,139,-2v-89,193,-140,306,-153,340v22,69,65,183,130,342v-63,-1,-107,-2,-134,-2v-25,0,-66,1,-124,2xm678,-192r-180,-342r194,-340v59,1,102,2,128,2v30,0,76,-1,139,-2v-90,193,-141,306,-153,340v22,69,65,183,129,342v-62,-1,-106,-2,-133,-2v-25,0,-66,1,-124,2","w":1075},"\u00bb":{"d":"528,-874v64,1,110,2,138,2v28,0,71,-1,128,-2r168,340r-207,342v-59,-1,-100,-2,-123,-2v-28,0,-73,1,-134,2v78,-162,130,-276,156,-342v-11,-37,-53,-150,-126,-340xm91,-874v64,1,110,2,138,2v28,0,71,-1,128,-2r168,340r-207,342v-59,-1,-100,-2,-123,-2v-27,0,-72,1,-134,2v78,-162,130,-276,156,-342v-11,-37,-53,-150,-126,-340","w":1079},"\u2026":{"d":"707,0v6,-106,11,-227,14,-362r205,3v23,0,81,-1,175,-3v-5,71,-12,191,-19,362r-174,-2v-13,0,-80,1,-201,2xm98,0v5,-89,10,-210,14,-362r206,3v22,0,80,-1,174,-3v-5,73,-11,193,-18,362r-174,-2v-13,0,-80,1,-202,2xm1316,0v5,-103,10,-223,14,-362r205,3v23,0,81,-1,175,-3v-5,65,-12,186,-19,362r-174,-2v-13,0,-80,1,-201,2","w":1822},"\u00a0":{"w":512},"\u00c0":{"d":"-79,0r83,-144r517,-974r122,-247v117,1,203,2,257,2v94,0,181,-1,261,-2r146,417r297,802r58,146v-115,-1,-185,-2,-210,-2v-56,0,-138,1,-247,2v-29,-110,-72,-239,-127,-388r-504,0v-58,117,-118,247,-180,388v-124,-1,-200,-2,-228,-2v-51,0,-132,1,-245,2xm695,-679r311,0v-77,-235,-120,-365,-127,-389v-44,98,-81,178,-112,241xm1062,-1492v-69,-1,-119,-2,-149,-2v-43,0,-95,1,-158,2r-97,-125r-80,-97v83,1,151,2,202,2v67,0,133,-1,200,-2","w":1667},"\u00c3":{"d":"-79,0r83,-144r517,-974r122,-247v117,1,203,2,257,2v94,0,181,-1,261,-2r146,417r297,802r58,146v-115,-1,-185,-2,-210,-2v-56,0,-138,1,-247,2v-29,-110,-72,-239,-127,-388r-504,0v-58,117,-118,247,-180,388v-124,-1,-200,-2,-228,-2v-51,0,-132,1,-245,2xm695,-679r311,0v-77,-235,-120,-365,-127,-389v-44,98,-81,178,-112,241xm792,-1575v-39,5,-49,27,-51,73v-76,-4,-85,-4,-161,0v6,-135,33,-241,151,-245v101,-4,152,95,241,95v41,0,49,-27,54,-72v38,2,66,3,84,3v18,0,46,-1,85,-3v1,135,-42,244,-159,247v-101,3,-155,-88,-244,-98","w":1667},"\u00d5":{"d":"74,-655v0,-488,361,-730,852,-736v355,-4,622,151,733,398v76,169,69,419,-5,591v-118,273,-394,426,-776,428v-365,2,-652,-153,-756,-410v-33,-81,-48,-172,-48,-271xm1281,-702v0,-230,-142,-388,-373,-388v-247,0,-398,183,-401,429v-3,231,156,381,381,381v241,0,393,-182,393,-422xm841,-1575v-39,5,-49,27,-51,73v-76,-4,-85,-4,-161,0v6,-135,33,-241,151,-245v101,-4,152,95,241,95v41,0,49,-27,54,-72v38,2,66,3,84,3v18,0,46,-1,85,-3v1,135,-42,244,-159,247v-101,3,-155,-88,-244,-98","w":1774},"\u0152":{"d":"74,-659v0,-511,351,-746,900,-719r387,12r757,1r-16,301v-81,-4,-177,-6,-287,-6v-77,0,-177,1,-298,4r-10,233r313,-1v43,-1,102,-2,179,-5v-7,107,-11,204,-14,293r-253,0r-240,6r-11,240v213,7,400,2,586,-12r-2,312r-797,1v-318,6,-675,48,-888,-87v-176,-111,-306,-299,-306,-573xm507,-655v0,264,188,409,477,370r86,-9r33,-778v-68,-10,-103,-14,-174,-14v-275,-4,-422,172,-422,431","w":2188},"\u0153":{"d":"1069,-877v88,-105,211,-170,401,-170v328,0,532,224,469,571r-693,0v-4,94,12,117,52,168v64,80,202,98,340,71v44,-9,121,-29,230,-62v-7,36,-15,81,-24,135v-9,54,-16,104,-22,149v-172,29,-213,41,-356,41v-199,0,-340,-45,-430,-157v-120,97,-216,154,-416,157v-229,3,-404,-102,-492,-244v-46,-73,-68,-162,-68,-267v0,-346,236,-562,579,-562v196,0,332,66,430,170xm1581,-624v15,-144,-100,-218,-227,-169v-68,26,-90,79,-100,169r327,0xm873,-535v1,-125,-77,-220,-201,-218v-144,1,-219,111,-221,258v-2,149,71,237,205,237v149,0,216,-126,217,-277","w":1995},"\u2013":{"d":"61,-393v8,-97,13,-189,15,-277v193,3,392,4,598,4v205,0,404,-1,597,-4v-7,83,-11,176,-14,277v-193,-2,-392,-3,-598,-3v-205,0,-405,1,-598,3"},"\u2014":{"d":"-2,-393r11,-277r841,4r842,-4r-13,277r-840,-3","w":1686},"\u201c":{"d":"494,-975r121,-198v11,-17,49,-81,112,-192r95,2v9,0,41,-1,95,-2r-126,390r-135,-2v-13,0,-67,1,-162,2xm74,-975r121,-198v11,-17,48,-81,112,-192r95,2v9,0,41,-1,95,-2r-126,390r-135,-2v-13,0,-67,1,-162,2","w":894},"\u201d":{"d":"927,-1365r-120,198v-11,17,-49,81,-112,192r-95,-2v-9,0,-41,1,-96,2r126,-390r135,2v13,0,67,-1,162,-2xm507,-1365r-134,220r-98,170r-95,-2v-9,0,-41,1,-96,2r126,-390r135,2v14,0,68,-1,162,-2","w":925},"\u2018":{"d":"74,-975r121,-198v11,-17,48,-81,112,-192r95,2v9,0,41,-1,95,-2r-126,390r-135,-2v-13,0,-67,1,-162,2","w":473},"\u2019":{"d":"507,-1365r-134,220r-98,170r-95,-2v-9,0,-41,1,-96,2r126,-390r135,2v14,0,68,-1,162,-2","w":505},"\u00f7":{"d":"545,-941r9,-134v1,-25,3,-72,5,-142v53,1,101,2,143,2v42,0,90,-1,143,-2v-6,76,-11,168,-14,276v-53,-2,-101,-3,-143,-3v-42,0,-90,1,-143,3xm107,-828r575,4r576,-4v-6,71,-10,154,-13,249r-575,-3r-576,3v7,-71,11,-154,13,-249xm507,-189r9,-134v1,-23,3,-71,5,-142v50,1,98,2,143,2v46,0,94,-1,144,-2v-7,75,-12,167,-15,276v-49,-2,-97,-3,-143,-3v-45,0,-93,1,-143,3"},"\u25ca":{"d":"681,-1419r531,736r-531,736r-532,-736xm681,-1238r-404,555r404,554r403,-554","w":1361},"\u00ff":{"d":"-37,160v109,62,292,78,357,-27v27,-44,40,-57,56,-113r-188,-569r-161,-472v99,1,169,2,209,2v47,0,110,-1,191,-2r71,266v53,202,73,261,99,446r21,-80r56,-171r65,-182r108,-279v83,1,146,2,189,2v37,0,104,-1,200,-2r-193,436r-349,809v-81,213,-311,297,-606,250v-21,-3,-48,-9,-83,-17v-21,-159,-35,-258,-42,-297xm699,-1178r11,-199v61,1,106,2,135,2v27,0,70,-1,127,-2v-1,23,-4,89,-8,199v-48,-2,-90,-3,-126,-3v-33,0,-79,1,-139,3xm312,-1178r12,-199v61,1,106,2,135,2v27,0,69,-1,126,-2r-8,199v-47,-2,-89,-3,-125,-3v-33,0,-79,1,-140,3","w":1211},"\u0178":{"d":"389,0v11,-83,39,-456,38,-549r-458,-816v101,1,184,2,249,2v63,0,138,-1,225,-2v51,132,170,351,220,486v77,-135,138,-241,185,-317v47,-76,80,-132,100,-169v85,1,166,2,244,2v41,0,116,-1,225,-2r-439,647v-98,164,-130,162,-133,233r-18,485v-94,-1,-167,-2,-218,-2v-53,0,-126,1,-220,2xm773,-1511r11,-199v61,1,106,2,135,2v27,0,70,-1,127,-2v-1,23,-4,89,-8,199v-48,-2,-90,-3,-126,-3v-33,0,-79,1,-139,3xm386,-1511r12,-199v61,1,106,2,135,2v27,0,69,-1,126,-2r-8,199v-47,-2,-89,-3,-125,-3v-33,0,-79,1,-140,3","w":1321},"\u2215":{"d":"-346,0r259,-479r460,-886v39,1,71,2,97,2v29,0,65,-1,106,-2r-218,404r-418,804r-75,157v-33,-1,-62,-2,-86,-2v-35,0,-76,1,-125,2","w":224},"\u20ac":{"d":"162,-911v103,-298,414,-480,807,-480v101,0,223,12,366,37r15,299v-135,-33,-242,-49,-320,-49v-181,0,-321,64,-420,193r674,0r-41,170r-713,0v-9,44,-11,74,-10,116r699,0r-41,170r-607,0v69,116,213,192,390,193v102,0,223,-18,364,-55r-53,311v-139,21,-266,31,-381,31v-376,0,-677,-171,-750,-480r-121,0r41,-170r58,0r4,-116r-103,0r41,-170r101,0","w":1395},"\u2039":{"d":"241,-192r-180,-342r195,-340v59,1,101,2,127,2v30,0,76,-1,139,-2v-89,193,-140,306,-153,340v22,69,65,183,130,342v-63,-1,-107,-2,-134,-2v-25,0,-66,1,-124,2","w":638},"\u203a":{"d":"91,-874v64,1,110,2,138,2v28,0,71,-1,128,-2r168,340r-207,342v-59,-1,-100,-2,-123,-2v-27,0,-72,1,-134,2v78,-162,130,-276,156,-342v-11,-37,-53,-150,-126,-340","w":642},"\uf001":{"d":"677,-1159v-89,-2,-124,49,-114,147r230,0v-5,77,-11,169,-16,278r-208,0r-33,734v-79,-1,-147,-2,-204,-2v-57,0,-124,1,-200,2v13,-128,28,-373,46,-734r-122,0v4,-36,15,-236,15,-278r142,0v-2,-125,-3,-234,45,-302v98,-141,379,-131,578,-73v2,106,6,194,12,264v-62,-24,-119,-36,-171,-36xm907,-1148v4,-79,6,-142,6,-188v0,-13,0,-31,-1,-54v81,1,148,2,203,2v75,0,141,-1,197,-2r-11,242v-66,-1,-130,-2,-191,-2v-62,0,-130,1,-203,2xm1310,-1021v-34,295,-36,746,-38,1021v-80,-1,-148,-2,-205,-2v-57,0,-132,1,-223,2v39,-333,47,-644,53,-1021v87,1,157,2,208,2v48,0,116,-1,205,-2","w":1401},"\uf002":{"d":"677,-1159v-89,-2,-124,49,-114,147r230,0v-5,77,-11,169,-16,278r-208,0r-33,734v-79,-1,-147,-2,-204,-2v-57,0,-124,1,-200,2v13,-128,28,-373,46,-734r-122,0v4,-36,15,-236,15,-278r142,0v-2,-125,-3,-234,45,-302v98,-141,379,-131,578,-73v2,106,6,194,12,264v-62,-24,-119,-36,-171,-36xm844,0r18,-223r39,-754r10,-388v93,1,163,2,210,2v61,0,128,-1,201,-2r-22,291r-38,766r-8,308v-71,-1,-136,-2,-194,-2v-54,0,-126,1,-216,2","w":1392},"\u2021":{"d":"146,-661v6,-58,15,-218,15,-281r317,3r18,-426v71,1,132,2,182,2v51,0,111,-1,182,-2r-23,426r317,-3v-7,84,-12,178,-14,281r-318,-3r-19,416r319,-3v-3,37,-7,84,-10,141v-3,57,-4,103,-5,140r-317,-3r-19,441v-67,-1,-128,-2,-182,-2v-54,0,-115,1,-182,2r24,-441r-317,3v8,-95,13,-189,15,-281r317,3r19,-416","w":1232},"\u2219":{"d":"24,-899r223,3v25,0,89,-1,190,-3r-21,394r-189,-2v-15,0,-88,1,-219,2v7,-128,12,-259,16,-394","w":424},"\u201a":{"d":"416,-237r-136,224v-16,26,-48,82,-96,167r-95,-3v-14,0,-46,1,-96,3r126,-391v75,2,120,3,135,3v27,0,81,-1,162,-3","w":505},"\u201e":{"d":"836,-237r-136,224r-96,167r-95,-3v-14,0,-46,1,-96,3r126,-391v76,2,121,3,135,3v28,0,82,-1,162,-3xm416,-237r-136,224v-16,26,-48,82,-96,167r-95,-3v-14,0,-46,1,-96,3r126,-391v75,2,120,3,135,3v27,0,81,-1,162,-3","w":872},"\u2030":{"d":"380,-505v-237,-1,-346,-162,-346,-402v0,-170,70,-359,186,-421v62,-33,128,-53,201,-53v231,0,343,163,342,404v-2,267,-119,473,-383,472xm411,-1191v-108,0,-129,170,-129,291v0,70,9,122,28,156v48,84,133,59,170,-36v35,-92,52,-274,5,-358v-20,-35,-45,-53,-74,-53xm456,0r282,-521r440,-844v42,1,79,2,111,2v27,0,63,-1,108,-2r-218,404r-371,707r-125,254v-41,-1,-76,-2,-105,-2v-19,0,-59,1,-122,2xm1435,16v-239,-3,-345,-152,-345,-405v0,-171,72,-357,186,-419v60,-33,126,-51,199,-51v235,3,345,154,345,398v0,269,-110,481,-385,477xm1543,-276v38,-117,60,-378,-76,-392v-130,20,-136,236,-121,380v7,69,55,143,132,109v32,-14,51,-52,65,-97xm2265,16v-239,-3,-345,-153,-345,-405v0,-172,72,-357,186,-419v61,-33,125,-51,198,-51v237,2,346,154,346,399v0,269,-111,479,-385,476xm2373,-276v39,-117,60,-378,-76,-392v-130,19,-136,237,-121,381v7,69,55,142,132,108v32,-14,51,-53,65,-97","w":2682},"\u00c2":{"d":"-79,0r83,-144r517,-974r122,-247v117,1,203,2,257,2v94,0,181,-1,261,-2r146,417r297,802r58,146v-115,-1,-185,-2,-210,-2v-56,0,-138,1,-247,2v-29,-110,-72,-239,-127,-388r-504,0v-58,117,-118,247,-180,388v-124,-1,-200,-2,-228,-2v-51,0,-132,1,-245,2xm695,-679r311,0v-77,-235,-120,-365,-127,-389v-44,98,-81,178,-112,241xm590,-1496v37,-70,73,-145,109,-225v65,1,137,2,215,2v55,0,120,-1,197,-2v16,42,48,117,96,225v-45,-1,-84,-2,-119,-2v-25,0,-63,1,-114,2r-66,-98r-73,98v-39,-1,-78,-2,-117,-2v-45,0,-88,1,-128,2","w":1667},"\u00ca":{"d":"99,0v44,-428,69,-928,70,-1365v157,1,348,2,571,2v206,0,388,-1,545,-2r-15,300v-129,-5,-237,-8,-324,-8v-96,0,-160,1,-194,1v-34,0,-87,1,-158,4r-12,229v79,2,170,3,275,3v37,0,137,-2,298,-7v-7,85,-13,187,-19,305v-115,-1,-204,-2,-266,-2v-92,0,-195,2,-309,7r-12,243r533,-8v31,-1,82,-3,154,-8v-8,99,-15,201,-20,306r-1117,0xm417,-1496v37,-70,73,-145,109,-225v65,1,137,2,215,2v55,0,120,-1,197,-2v16,42,48,117,96,225v-45,-1,-84,-2,-119,-2v-25,0,-63,1,-114,2r-66,-98r-73,98v-39,-1,-78,-2,-117,-2v-45,0,-88,1,-128,2","w":1350},"\u00c1":{"d":"-79,0r83,-144r517,-974r122,-247v117,1,203,2,257,2v94,0,181,-1,261,-2r146,417r297,802r58,146v-115,-1,-185,-2,-210,-2v-56,0,-138,1,-247,2v-29,-110,-72,-239,-127,-388r-504,0v-58,117,-118,247,-180,388v-124,-1,-200,-2,-228,-2v-51,0,-132,1,-245,2xm695,-679r311,0v-77,-235,-120,-365,-127,-389v-44,98,-81,178,-112,241xm733,-1492r99,-222v68,1,134,2,199,2v54,0,121,-1,202,-2r-193,222v-64,-1,-117,-2,-158,-2v-32,0,-82,1,-149,2","w":1667},"\u00cb":{"d":"99,0v44,-428,69,-928,70,-1365v157,1,348,2,571,2v206,0,388,-1,545,-2r-15,300v-129,-5,-237,-8,-324,-8v-96,0,-160,1,-194,1v-34,0,-87,1,-158,4r-12,229v79,2,170,3,275,3v37,0,137,-2,298,-7v-7,85,-13,187,-19,305v-115,-1,-204,-2,-266,-2v-92,0,-195,2,-309,7r-12,243r533,-8v31,-1,82,-3,154,-8v-8,99,-15,201,-20,306r-1117,0xm797,-1511r11,-199v61,1,106,2,135,2v27,0,70,-1,127,-2v-1,23,-4,89,-8,199v-48,-2,-90,-3,-126,-3v-33,0,-79,1,-139,3xm410,-1511r12,-199v61,1,106,2,135,2v27,0,69,-1,126,-2r-8,199v-47,-2,-89,-3,-125,-3v-33,0,-79,1,-140,3","w":1350},"\u00c8":{"d":"99,0v44,-428,69,-928,70,-1365v157,1,348,2,571,2v206,0,388,-1,545,-2r-15,300v-129,-5,-237,-8,-324,-8v-96,0,-160,1,-194,1v-34,0,-87,1,-158,4r-12,229v79,2,170,3,275,3v37,0,137,-2,298,-7v-7,85,-13,187,-19,305v-115,-1,-204,-2,-266,-2v-92,0,-195,2,-309,7r-12,243r533,-8v31,-1,82,-3,154,-8v-8,99,-15,201,-20,306r-1117,0xm889,-1492v-69,-1,-119,-2,-149,-2v-43,0,-95,1,-158,2r-97,-125r-80,-97v83,1,151,2,202,2v67,0,133,-1,200,-2","w":1350},"\u00cd":{"d":"104,0v39,-535,58,-947,58,-1236r-1,-129v117,1,195,2,234,2v18,0,90,-1,215,-2v-12,150,-22,292,-29,426v-9,187,-16,361,-20,523v-4,162,-6,301,-6,416r-205,-2v-40,0,-122,1,-246,2xm228,-1492r99,-222v68,1,134,2,199,2v54,0,121,-1,202,-2r-193,222v-64,-1,-117,-2,-158,-2v-32,0,-82,1,-149,2","w":700},"\u00ce":{"d":"99,0v39,-535,58,-947,58,-1236r-1,-129v117,1,195,2,234,2v18,0,90,-1,215,-2v-12,150,-22,292,-29,426v-9,187,-16,361,-20,523v-4,162,-6,301,-6,416r-205,-2v-40,0,-122,1,-246,2xm80,-1496v37,-70,73,-145,109,-225v65,1,137,2,215,2v55,0,120,-1,197,-2v16,42,48,117,96,225v-45,-1,-84,-2,-119,-2v-25,0,-63,1,-114,2r-66,-98r-73,98v-39,-1,-78,-2,-117,-2v-45,0,-88,1,-128,2","w":700},"\u00cf":{"d":"123,0v39,-535,58,-947,58,-1236r-1,-129v117,1,195,2,234,2v18,0,90,-1,215,-2v-12,150,-22,292,-29,426v-9,187,-16,361,-20,523v-4,162,-6,301,-6,416r-205,-2v-40,0,-122,1,-246,2xm481,-1511r11,-199v61,1,106,2,135,2v27,0,70,-1,127,-2v-1,23,-4,89,-8,199v-48,-2,-90,-3,-126,-3v-33,0,-79,1,-139,3xm94,-1511r12,-199v61,1,106,2,135,2v27,0,69,-1,126,-2r-8,199v-47,-2,-89,-3,-125,-3v-33,0,-79,1,-140,3","w":700},"\u00cc":{"d":"93,0v39,-535,58,-947,58,-1236r-1,-129v117,1,195,2,234,2v18,0,90,-1,215,-2v-12,150,-22,292,-29,426v-9,187,-16,361,-20,523v-4,162,-6,301,-6,416r-205,-2v-40,0,-122,1,-246,2xm558,-1492v-69,-1,-119,-2,-149,-2v-43,0,-95,1,-158,2r-97,-125r-80,-97v83,1,151,2,202,2v67,0,133,-1,200,-2","w":700},"\u00d3":{"d":"74,-655v0,-488,361,-730,852,-736v355,-4,622,151,733,398v76,169,69,419,-5,591v-118,273,-394,426,-776,428v-365,2,-652,-153,-756,-410v-33,-81,-48,-172,-48,-271xm1281,-702v0,-230,-142,-388,-373,-388v-247,0,-398,183,-401,429v-3,231,156,381,381,381v241,0,393,-182,393,-422xm765,-1492r99,-222v68,1,134,2,199,2v54,0,121,-1,202,-2r-193,222v-64,-1,-117,-2,-158,-2v-32,0,-82,1,-149,2","w":1774},"\u00d4":{"d":"74,-655v0,-488,361,-730,852,-736v355,-4,622,151,733,398v76,169,69,419,-5,591v-118,273,-394,426,-776,428v-365,2,-652,-153,-756,-410v-33,-81,-48,-172,-48,-271xm1281,-702v0,-230,-142,-388,-373,-388v-247,0,-398,183,-401,429v-3,231,156,381,381,381v241,0,393,-182,393,-422xm622,-1496v37,-70,73,-145,109,-225v65,1,137,2,215,2v55,0,120,-1,197,-2v16,42,48,117,96,225v-45,-1,-84,-2,-119,-2v-25,0,-63,1,-114,2r-66,-98r-73,98v-39,-1,-78,-2,-117,-2v-45,0,-88,1,-128,2","w":1774},"\u00d2":{"d":"74,-655v0,-488,361,-730,852,-736v355,-4,622,151,733,398v76,169,69,419,-5,591v-118,273,-394,426,-776,428v-365,2,-652,-153,-756,-410v-33,-81,-48,-172,-48,-271xm1281,-702v0,-230,-142,-388,-373,-388v-247,0,-398,183,-401,429v-3,231,156,381,381,381v241,0,393,-182,393,-422xm1094,-1492v-69,-1,-119,-2,-149,-2v-43,0,-95,1,-158,2r-97,-125r-80,-97v83,1,151,2,202,2v67,0,133,-1,200,-2","w":1774},"\u00da":{"d":"160,-1365v104,1,177,2,220,2v53,0,124,-1,213,-2r-43,650v-6,165,-19,269,46,359v67,94,309,92,377,0v29,-39,53,-82,61,-148v28,-226,50,-586,55,-861v101,1,180,2,238,2r203,-2r-50,743v-8,238,-7,325,-97,442v-233,301,-1165,288,-1258,-100v-52,-216,6,-442,17,-690xm675,-1492r99,-222v68,1,134,2,199,2v54,0,121,-1,202,-2r-193,222v-64,-1,-117,-2,-158,-2v-32,0,-82,1,-149,2","w":1592},"\u00db":{"d":"160,-1365v104,1,177,2,220,2v53,0,124,-1,213,-2r-43,650v-6,165,-19,269,46,359v67,94,309,92,377,0v29,-39,53,-82,61,-148v28,-226,50,-586,55,-861v101,1,180,2,238,2r203,-2r-50,743v-8,238,-7,325,-97,442v-233,301,-1165,288,-1258,-100v-52,-216,6,-442,17,-690xm533,-1496v37,-70,73,-145,109,-225v65,1,137,2,215,2v55,0,120,-1,197,-2v16,42,48,117,96,225v-45,-1,-84,-2,-119,-2v-25,0,-63,1,-114,2r-66,-98r-73,98v-39,-1,-78,-2,-117,-2v-45,0,-88,1,-128,2","w":1592},"\u00d9":{"d":"160,-1365v104,1,177,2,220,2v53,0,124,-1,213,-2r-43,650v-6,165,-19,269,46,359v67,94,309,92,377,0v29,-39,53,-82,61,-148v28,-226,50,-586,55,-861v101,1,180,2,238,2r203,-2r-50,743v-8,238,-7,325,-97,442v-233,301,-1165,288,-1258,-100v-52,-216,6,-442,17,-690xm1004,-1492v-69,-1,-119,-2,-149,-2v-43,0,-95,1,-158,2r-97,-125r-80,-97v83,1,151,2,202,2v67,0,133,-1,200,-2","w":1592},"\u0131":{"d":"548,-1021v-34,297,-37,745,-38,1021v-79,-1,-148,-2,-205,-2v-57,0,-131,1,-223,2v41,-336,46,-639,54,-1021v87,1,156,2,208,2v47,0,115,-1,204,-2","w":639},"\u02c6":{"d":"231,-1163v37,-70,73,-145,109,-225v65,1,137,2,215,2v55,0,120,-1,197,-2v16,42,48,117,96,225v-45,-1,-84,-2,-119,-2v-25,0,-63,1,-114,2r-66,-98r-73,98v-39,-1,-78,-2,-117,-2v-45,0,-88,1,-128,2","w":1024},"\u02dc":{"d":"456,-1240v-39,5,-49,27,-51,73v-76,-4,-85,-4,-161,0v6,-135,33,-241,151,-245v101,-4,152,95,241,95v41,0,49,-27,54,-72v38,2,66,3,84,3v18,0,46,-1,85,-3v1,135,-42,244,-159,247v-101,3,-155,-88,-244,-98","w":1024},"\u02c9":{"d":"863,-1353r-7,166v-157,-1,-261,-2,-311,-2r-322,2v3,-55,5,-110,6,-166r194,5r316,0v26,0,67,-2,124,-5","w":1024},"\u02d8":{"d":"547,-1306v83,0,132,-32,154,-94v53,3,93,3,146,0v1,112,-54,171,-123,216v-88,56,-266,56,-354,0v-69,-43,-122,-104,-122,-216v52,3,93,3,145,0v24,61,71,94,154,94","w":1024},"\u02d9":{"d":"403,-1173r12,-209v64,1,111,2,142,2v29,0,74,-1,133,-2v-2,39,-5,108,-8,209v-54,-2,-98,-3,-132,-3v-29,0,-78,1,-147,3","w":1024},"\u02da":{"d":"576,-1549v115,0,200,84,200,200v0,116,-85,200,-200,200v-116,0,-200,-85,-200,-200v0,-115,85,-200,200,-200xm576,-1277v36,0,69,-32,69,-69v0,-37,-32,-69,-69,-69v-37,0,-69,32,-69,69v0,36,33,69,69,69","w":1024},"\u00b8":{"d":"721,83r-132,264v-68,-1,-132,-2,-192,-2v-59,0,-126,1,-202,2v67,-83,136,-173,206,-270v59,11,232,10,320,6","w":1024},"\u02dd":{"d":"193,-1170r90,-220v63,1,117,2,162,2v50,0,105,-1,165,-2r-118,146r-58,74v-39,-2,-81,-3,-124,-3v-23,0,-62,1,-117,3xm589,-1170r90,-220v63,1,117,2,162,2v50,0,105,-1,165,-2r-176,220v-39,-2,-81,-3,-124,-3v-23,0,-62,1,-117,3","w":1024},"\u02db":{"d":"556,197v0,-92,39,-131,96,-199r162,0v-44,37,-76,78,-76,140v0,53,41,92,98,92v29,0,62,-5,100,-15v-19,78,-14,57,-27,143v-47,13,-93,20,-136,20v-126,0,-217,-71,-217,-181","w":1024},"\u02c7":{"d":"864,-1388v-40,77,-76,152,-109,225v-77,-1,-149,-2,-215,-2v-41,0,-106,1,-197,2v-11,-29,-43,-104,-96,-225v45,1,84,2,119,2v25,0,63,-1,114,-2r66,98r73,-98v39,1,78,2,117,2v45,0,88,-1,128,-2","w":1024},"\u0141":{"d":"884,-1163r-18,339v-35,24,-135,96,-298,217v-6,103,-10,206,-12,309v115,2,189,3,224,3v175,0,308,-2,398,-7r-22,302v-176,-1,-343,-2,-502,-2v-214,0,-402,1,-563,2v17,-159,28,-282,33,-371r-150,118r19,-341r154,-110r9,-179v5,-95,8,-194,10,-297v2,-103,3,-164,3,-185v90,1,170,2,241,2v47,0,115,-1,203,-2v-12,163,-21,307,-27,434v145,-109,244,-187,298,-232","w":1200},"\u0142":{"d":"-9,-302v11,-116,18,-234,23,-353r131,-92r21,-618v93,1,162,2,209,2v61,0,129,-1,202,-2r-27,397r138,-107v-10,110,-16,227,-19,351r-138,97r-22,627r-410,-1r13,-164r14,-241","w":660},"\u0160":{"d":"1035,-374v0,281,-240,400,-538,400v-108,0,-244,-16,-409,-47v-9,-142,-19,-256,-30,-341v118,53,220,86,353,89v107,2,214,-29,185,-133v-9,-31,-32,-54,-59,-78r-280,-245v-78,-78,-139,-142,-139,-281v0,-273,229,-381,519,-381v113,0,235,13,368,39v2,46,4,88,7,126v3,38,9,106,19,202v-97,-40,-190,-64,-299,-66v-97,-2,-220,47,-173,140v65,130,236,197,342,311v67,73,134,135,134,265xm942,-1721v-40,77,-76,152,-109,225v-77,-1,-149,-2,-215,-2v-41,0,-106,1,-197,2v-11,-29,-43,-104,-96,-225v45,1,84,2,119,2v25,0,63,-1,114,-2r66,98r73,-98v39,1,78,2,117,2v45,0,88,-1,128,-2","w":1132},"\u0161":{"d":"885,-275v0,345,-488,332,-805,256r-29,-298v105,39,181,70,296,75v82,3,163,-29,127,-102v-117,-128,-350,-181,-350,-411v0,-210,178,-292,413,-292v93,0,211,12,355,36r16,281v-81,-32,-158,-48,-233,-48v-89,1,-161,9,-146,86v24,43,77,67,116,97v118,91,240,140,240,320xm856,-1388v-40,77,-76,152,-109,225v-77,-1,-149,-2,-215,-2v-41,0,-106,1,-197,2v-11,-29,-43,-104,-96,-225v45,1,84,2,119,2v25,0,63,-1,114,-2r66,98r73,-98v39,1,78,2,117,2v45,0,88,-1,128,-2","w":989},"\u017d":{"d":"41,0v8,-137,12,-239,12,-304r59,-58r517,-558r135,-155r-297,-2v-105,0,-217,4,-334,11v7,-92,12,-195,7,-299v189,1,390,2,603,2v220,0,410,-1,569,-2r-13,300r-85,84r-626,685r279,0r385,-11v-7,119,-12,221,-15,307r-1196,0xm1052,-1721v-40,77,-76,152,-109,225v-77,-1,-149,-2,-215,-2v-41,0,-106,1,-197,2v-11,-29,-43,-104,-96,-225v45,1,84,2,119,2v25,0,63,-1,114,-2r66,98r73,-98v39,1,78,2,117,2v45,0,88,-1,128,-2","w":1365},"\u017e":{"d":"54,0v3,-74,5,-174,7,-300r71,-65r403,-390v-165,1,-305,6,-422,15r8,-281v80,1,232,2,455,2v178,0,316,-1,415,-2v-3,29,-8,135,-15,318r-462,432v65,2,157,3,278,3v47,0,102,-1,165,-4v-6,49,-13,140,-20,272v-86,-1,-233,-2,-440,-2v-203,0,-350,1,-443,2xm888,-1388v-40,77,-76,152,-109,225v-77,-1,-149,-2,-215,-2v-41,0,-106,1,-197,2v-11,-29,-43,-104,-96,-225v45,1,84,2,119,2v25,0,63,-1,114,-2r66,98r73,-98v39,1,78,2,117,2v45,0,88,-1,128,-2","w":1072},"\u00a6":{"d":"327,-1365r365,0r0,734r-365,0r0,-734xm327,-314r365,0r0,655r-365,0r0,-655","w":1019},"\u00d0":{"d":"366,-1362v310,4,676,-47,889,72v215,120,321,444,244,765v-69,289,-236,480,-562,513v-263,27,-546,0,-835,12v21,-209,34,-400,41,-573r-139,3v10,-85,17,-169,20,-252r129,3v8,-200,12,-343,12,-429r0,-117v77,2,144,3,201,3xm1090,-726v0,-238,-105,-352,-352,-352v-49,0,-105,2,-170,6r-11,254v63,0,144,-1,244,-4v-8,76,-14,160,-17,252v-81,-2,-161,-3,-238,-4r-12,273v170,12,348,3,436,-89v69,-72,120,-202,120,-336","w":1584},"\u00f0":{"d":"739,-1040v-28,-53,-65,-102,-90,-146r-106,63r-57,-121v-8,-17,-18,-35,-30,-56r109,-58r-71,-119r116,-56v41,-20,80,-41,119,-64r74,121r116,-68v39,85,69,144,88,177r-113,59v113,201,201,353,269,456v52,78,109,183,106,318v-7,364,-244,560,-612,560v-351,0,-597,-176,-597,-523v0,-270,156,-427,358,-506v106,-42,200,-56,321,-37xm868,-531v1,-131,-65,-222,-192,-222v-146,0,-212,119,-215,268v-2,134,73,227,193,227v146,0,212,-124,214,-273","w":1329},"\u00dd":{"d":"389,0v11,-83,39,-456,38,-549r-458,-816v101,1,184,2,249,2v63,0,138,-1,225,-2v51,132,170,351,220,486v77,-135,138,-241,185,-317v47,-76,80,-132,100,-169v85,1,166,2,244,2v41,0,116,-1,225,-2r-439,647v-98,164,-130,162,-133,233r-18,485v-94,-1,-167,-2,-218,-2v-53,0,-126,1,-220,2xm539,-1492r99,-222v68,1,134,2,199,2v54,0,121,-1,202,-2r-193,222v-64,-1,-117,-2,-158,-2v-32,0,-82,1,-149,2","w":1321},"\u00fd":{"d":"-37,160v109,62,292,78,357,-27v27,-44,40,-57,56,-113r-188,-569r-161,-472v99,1,169,2,209,2v47,0,110,-1,191,-2r71,266v53,202,73,261,99,446r21,-80r56,-171r65,-182r108,-279v83,1,146,2,189,2v37,0,104,-1,200,-2r-193,436r-349,809v-81,213,-311,297,-606,250v-21,-3,-48,-9,-83,-17v-21,-159,-35,-258,-42,-297xm463,-1164r99,-222v68,1,134,2,199,2v54,0,121,-1,202,-2r-193,222v-64,-1,-117,-2,-158,-2v-32,0,-82,1,-149,2","w":1211},"\u00de":{"d":"867,-762v5,-158,-185,-134,-332,-122r-14,317r-10,567r-199,-2v-28,0,-97,1,-208,2r22,-285r25,-490r11,-451r-1,-139v73,1,140,2,200,2v63,0,129,-1,200,-2v-6,55,-11,140,-12,191r265,-6v294,-11,465,122,465,395v0,341,-277,509,-638,454v-10,-59,-49,-219,-66,-272v30,6,61,9,92,9v120,3,196,-63,200,-168","w":1307},"\u00fe":{"d":"1024,-12v-183,83,-422,15,-538,-89r-11,279v-5,128,-7,225,-7,290v-77,-1,-144,-2,-199,-2v-48,0,-117,1,-208,2r26,-311r41,-715r23,-807v65,1,131,2,198,2v67,0,133,-1,198,-2v-17,171,-26,295,-29,371v155,-73,362,-70,520,10v202,102,303,400,220,678v-38,126,-124,243,-234,294xm897,-528v2,-142,-77,-240,-221,-238v-45,0,-100,9,-165,26r-11,146v-17,190,29,336,191,336v141,0,204,-122,206,-270","w":1348},"\u2212":{"d":"107,-828r575,4r576,-4v-6,71,-10,154,-13,249r-575,-3r-576,3v6,-70,10,-153,13,-249"},"\u00d7":{"d":"332,-208v-41,-47,-97,-106,-166,-176r339,-319r-308,-320v41,-36,103,-94,184,-175r304,323r335,-324v48,56,103,115,166,177r-339,319r308,319v-47,41,-108,100,-185,176r-303,-324"},"\u00b9":{"d":"230,-1047v4,-41,10,-178,10,-226v78,-45,127,-76,146,-92r258,0v-11,140,-23,310,-34,511v-3,71,-6,173,-8,308v-37,-1,-80,-2,-127,-2v-55,0,-103,1,-144,2v5,-66,12,-159,19,-278v7,-119,12,-223,15,-314v-51,30,-89,59,-135,91","w":840},"\u00b2":{"d":"743,-728r-14,182v-113,-1,-219,-2,-316,-2v-130,0,-242,1,-336,2r8,-173r95,-79v81,-72,212,-196,272,-282v14,-20,18,-27,18,-51v0,-81,-132,-76,-216,-63v-32,5,-75,15,-129,29v14,-71,25,-134,32,-189v106,-18,206,-27,299,-27v181,-1,354,71,312,243v-33,135,-130,209,-222,304v-35,36,-77,74,-124,115v72,0,134,0,186,-1v52,-1,97,-4,135,-8","w":841},"\u00b3":{"d":"763,-787v0,285,-389,284,-651,224v-6,-89,-12,-155,-17,-198v91,31,173,46,245,46v77,0,148,-30,148,-95v0,-102,-173,-84,-278,-75v7,-80,12,-143,14,-189v31,5,63,8,95,8v98,-1,147,-10,159,-74v-7,-55,-52,-66,-129,-66v-60,0,-127,8,-200,24r38,-183v244,-26,582,-54,582,188v0,120,-71,167,-166,208v107,25,160,86,160,182","w":840},"\u00bd":{"d":"230,-1047v4,-41,10,-178,10,-226v78,-45,127,-76,146,-92r258,0v-11,140,-23,310,-34,511v-3,71,-6,173,-8,308v-37,-1,-80,-2,-127,-2v-55,0,-103,1,-144,2v5,-66,12,-159,19,-278v7,-119,12,-223,15,-314v-51,30,-89,59,-135,91xm493,0r259,-479r460,-886v39,1,71,2,97,2v29,0,65,-1,106,-2r-220,408r-416,800r-75,157v-33,-1,-62,-2,-86,-2v-35,0,-76,1,-125,2xm1489,-835v181,-1,354,71,313,243v-32,135,-133,209,-224,304v-35,36,-76,74,-122,115v72,0,134,0,186,-1v52,-1,97,-4,135,-8r-15,182v-113,-1,-218,-2,-315,-2v-131,0,-243,1,-337,2r9,-172r94,-80v89,-85,230,-202,287,-312v22,-99,-117,-98,-212,-82v-32,5,-75,14,-130,27v14,-71,25,-134,33,-189v105,-18,205,-27,298,-27","w":1901},"\u00bc":{"d":"230,-1047v4,-41,10,-178,10,-226v78,-45,127,-76,146,-92r258,0v-11,140,-23,310,-34,511v-3,71,-6,173,-8,308v-37,-1,-80,-2,-127,-2v-55,0,-103,1,-144,2v5,-66,12,-159,19,-278v7,-119,12,-223,15,-314v-51,30,-89,59,-135,91xm493,0r259,-479r460,-886v39,1,71,2,97,2v29,0,65,-1,106,-2r-220,408r-416,800r-75,157v-33,-1,-62,-2,-86,-2v-35,0,-76,1,-125,2xm1110,-203v2,-9,10,-193,9,-207v105,-127,204,-264,296,-409r313,0v-7,81,-12,163,-16,248v-4,85,-6,145,-6,182r127,-1r-2,185v-15,-2,-59,-3,-132,-3v-4,53,-5,136,-5,208v-43,-1,-84,-2,-125,-2v-38,0,-82,1,-133,2v9,-86,14,-155,15,-207xm1486,-379v5,-133,9,-220,12,-261v-58,96,-119,172,-183,260","w":1901},"\u00be":{"d":"763,-787v0,285,-389,284,-651,224v-6,-89,-12,-155,-17,-198v91,31,173,46,245,46v77,0,148,-30,148,-95v0,-102,-173,-84,-278,-75v7,-80,12,-143,14,-189v31,5,63,8,95,8v98,-1,147,-10,159,-74v-7,-55,-52,-66,-129,-66v-60,0,-127,8,-200,24r38,-183v244,-26,582,-54,582,188v0,120,-71,167,-166,208v107,25,160,86,160,182xm493,0r259,-479r460,-886v39,1,71,2,97,2v29,0,65,-1,106,-2r-218,404r-418,804r-75,157v-33,-1,-62,-2,-86,-2v-35,0,-76,1,-125,2xm1110,-203v1,-6,10,-198,9,-207v107,-129,205,-266,296,-409r313,0v-15,203,-22,346,-22,430r127,-1r-2,185v-15,-2,-59,-3,-132,-3v-3,39,-5,108,-5,208v-43,-1,-84,-2,-125,-2v-37,0,-82,1,-133,2v8,-82,13,-151,15,-207xm1486,-379v5,-115,9,-202,12,-261v-57,94,-120,174,-183,260","w":1901},"\u00ad":{"d":"-3,-393v8,-97,13,-189,15,-277v95,3,184,4,268,4v85,0,175,-1,269,-4v-8,86,-13,178,-15,277v-95,-2,-184,-3,-269,-3v-85,0,-174,1,-268,3","w":547},"\u00af":{"d":"-2,-1622r1024,0r0,216r-1024,0r0,-216","w":1019},"\u00b7":{"d":"24,-899r223,3v25,0,89,-1,190,-3r-21,394r-189,-2v-15,0,-88,1,-219,2v7,-128,12,-259,16,-394","w":424},"\u00a4":{"d":"238,-448v-99,-147,-83,-385,20,-510r-118,-122v55,-49,116,-108,183,-175r140,150v145,-54,312,-52,454,5r161,-155v60,67,115,126,165,175r-138,129v94,139,86,365,-11,503r118,122v-70,59,-120,113,-184,174r-132,-142v-144,56,-328,54,-471,-4r-151,147v-46,-53,-101,-112,-165,-176xm866,-709v0,-121,-71,-195,-190,-195v-125,0,-199,88,-199,216v0,124,68,203,188,203v130,0,200,-94,201,-224"}}});
